tree
version=v4
num_class=1
num_tree_per_iteration=1
label_index=0
max_feature_idx=263
objective=regression
feature_names=ends DG_total DH_total DG_pos1 DG_pos2 DG_pos3 DG_pos4 DG_pos5 DG_pos6 DG_pos7 DG_pos8 DG_pos9 DG_pos10 DG_pos11 DG_pos12 DG_pos13 DG_pos14 DG_pos15 DG_pos16 DG_pos17 DG_pos18 DH_pos1 DH_pos2 DH_pos3 DH_pos4 DH_pos5 DH_pos6 DH_pos7 DH_pos8 DH_pos9 DH_pos10 DH_pos11 DH_pos12 DH_pos13 DH_pos14 DH_pos15 DH_pos16 DH_pos17 DH_pos18 single_energy_total single_energy_pos1 single_energy_pos2 single_energy_pos3 single_energy_pos4 single_energy_pos5 single_energy_pos6 single_energy_pos7 single_energy_pos8 single_energy_pos9 single_energy_pos10 single_energy_pos11 single_energy_pos12 single_energy_pos13 single_energy_pos14 single_energy_pos15 single_energy_pos16 single_energy_pos17 single_energy_pos18 single_energy_pos19 duplex_energy_total duplex_energy_sirna_pos1 duplex_energy_sirna_pos2 duplex_energy_sirna_pos3 duplex_energy_sirna_pos4 duplex_energy_sirna_pos5 duplex_energy_sirna_pos6 duplex_energy_sirna_pos7 duplex_energy_sirna_pos8 duplex_energy_sirna_pos9 duplex_energy_sirna_pos10 duplex_energy_sirna_pos11 duplex_energy_sirna_pos12 duplex_energy_sirna_pos13 duplex_energy_sirna_pos14 duplex_energy_sirna_pos15 duplex_energy_sirna_pos16 duplex_energy_sirna_pos17 duplex_energy_sirna_pos18 duplex_energy_sirna_pos19 duplex_energy_target_pos1 duplex_energy_target_pos2 duplex_energy_target_pos3 duplex_energy_target_pos4 duplex_energy_target_pos5 duplex_energy_target_pos6 duplex_energy_target_pos7 duplex_energy_target_pos8 duplex_energy_target_pos9 duplex_energy_target_pos10 duplex_energy_target_pos11 duplex_energy_target_pos12 duplex_energy_target_pos13 duplex_energy_target_pos14 duplex_energy_target_pos15 duplex_energy_target_pos16 duplex_energy_target_pos17 duplex_energy_target_pos18 duplex_energy_target_pos19 RNAup_open_dG RNAup_interaction_dG sirna_len sirna_frac_A sirna_frac_C sirna_frac_G sirna_frac_U sirna_frac_X sirna_purine_frac sirna_pyrimidine_frac mrna_len mrna_frac_A mrna_frac_C mrna_frac_G mrna_frac_U mrna_frac_X mrna_purine_frac mrna_pyrimidine_frac sirna_mrna_gc_gap sirna_seed_gc sirna_tail_gc sirna_seed_tail_gc_diff sirna_seed_au sirna_tail_au mrna_seed_gc mrna_tail_gc mrna_seed_tail_gc_diff mrna_seed_au mrna_tail_au sirna_first_base_code sirna_last_base_code mrna_first_base_code mrna_last_base_code pair_frac_UA pair_frac_UG pair_frac_CG pair_frac_GC pair_frac_AU pair_frac_GU pair_frac_mismatch pair_match_ratio extended_len extended_frac_A extended_frac_C extended_frac_G extended_frac_U extended_frac_X extended_purine_frac extended_pyrimidine_frac extended_x_frac extended_gc_content extended_seed_gc extended_tail_gc extended_seed_tail_gc_diff extended_seed_au extended_tail_au extended_first_base_code extended_last_base_code sirna_pos1_code sirna_pos2_code sirna_pos3_code sirna_pos4_code sirna_pos5_code sirna_pos6_code sirna_pos7_code sirna_pos8_code sirna_pos9_code sirna_pos10_code sirna_pos11_code sirna_pos12_code sirna_pos13_code sirna_pos14_code sirna_pos15_code sirna_pos16_code sirna_pos17_code sirna_pos18_code sirna_pos19_code mrna_pos1_code mrna_pos2_code mrna_pos3_code mrna_pos4_code mrna_pos5_code mrna_pos6_code mrna_pos7_code mrna_pos8_code mrna_pos9_code mrna_pos10_code mrna_pos11_code mrna_pos12_code mrna_pos13_code mrna_pos14_code mrna_pos15_code mrna_pos16_code mrna_pos17_code mrna_pos18_code mrna_pos19_code DG_pos_mean DG_pos_std DG_pos_min DG_pos_max DG_pos_mean_seed DG_pos_std_seed DG_pos_mean_mid DG_pos_std_mid DG_pos_mean_tail DG_pos_std_tail DG_pos_seed_tail_mean_diff DG_pos_first_last_diff DG_pos_weighted_trend DH_pos_mean DH_pos_std DH_pos_min DH_pos_max DH_pos_mean_seed DH_pos_std_seed DH_pos_mean_mid DH_pos_std_mid DH_pos_mean_tail DH_pos_std_tail DH_pos_seed_tail_mean_diff DH_pos_first_last_diff DH_pos_weighted_trend single_energy_pos_mean single_energy_pos_std single_energy_pos_min single_energy_pos_max single_energy_pos_mean_seed single_energy_pos_std_seed single_energy_pos_mean_mid single_energy_pos_std_mid single_energy_pos_mean_tail single_energy_pos_std_tail single_energy_pos_seed_tail_mean_diff single_energy_pos_first_last_diff single_energy_pos_weighted_trend duplex_energy_sirna_pos_mean duplex_energy_sirna_pos_std duplex_energy_sirna_pos_min duplex_energy_sirna_pos_max duplex_energy_sirna_pos_mean_seed duplex_energy_sirna_pos_std_seed duplex_energy_sirna_pos_mean_mid duplex_energy_sirna_pos_std_mid duplex_energy_sirna_pos_mean_tail duplex_energy_sirna_pos_std_tail duplex_energy_sirna_pos_seed_tail_mean_diff duplex_energy_sirna_pos_first_last_diff duplex_energy_sirna_pos_weighted_trend duplex_energy_target_pos_mean duplex_energy_target_pos_std duplex_energy_target_pos_min duplex_energy_target_pos_max duplex_energy_target_pos_mean_seed duplex_energy_target_pos_std_seed duplex_energy_target_pos_mean_mid duplex_energy_target_pos_std_mid duplex_energy_target_pos_mean_tail duplex_energy_target_pos_std_tail duplex_energy_target_pos_seed_tail_mean_diff duplex_energy_target_pos_first_last_diff duplex_energy_target_pos_weighted_trend single_duplex_gap RNAup_combined_dG DG_DH_diff DG_DH_mean_diff duplex_sirna_target_mean_gap
feature_infos=[-2.3411805629730225:2.2519376277923584] [-2.9626908302307129:3.2637906074523926] [-2.8018884658813477:3.3903586864471436] [-1.6728295087814331:1.6561830043792725] [-1.6499273777008057:1.6571395397186279] [-1.6952990293502808:1.7202922105789185] [-1.6519323587417603:1.7039889097213745] [-1.6280306577682495:1.6965563297271729] [-1.6323469877243042:1.6751315593719482] [-1.6858159303665161:1.7124171257019043] [-1.6953401565551758:1.7357807159423828] [-1.6324958801269531:1.7088642120361328] [-1.6619045734405518:1.7333990335464478] [-1.6542338132858276:1.7395205497741699] [-1.6309562921524048:1.6897696256637573] [-1.6655559539794922:1.7311121225357056] [-1.6680885553359985:1.7107882499694824] [-1.6673109531402588:1.76853346824646] [-1.6334038972854614:1.7605092525482178] [-1.6461426019668579:1.7347348928451538] [-1.635750412940979:1.7745215892791748] [-1.8059239387512207:1.8419035673141479] [-1.7764726877212524:1.8350383043289185] [-1.8172568082809448:1.9085793495178223] [-1.7831815481185913:1.8808724880218506] [-1.7613159418106079:1.8820865154266357] [-1.7648340463638306:1.8558366298675537] [-1.8131062984466553:1.8994306325912476] [-1.8243829011917114:1.9368671178817749] [-1.7591840028762817:1.8854639530181885] [-1.7983936071395874:1.9308938980102539] [-1.794460654258728:1.933423638343811] [-1.7638598680496216:1.8768378496170044] [-1.798491358757019:1.9282829761505127] [-1.7886573076248169:1.8786764144897461] [-1.8043078184127808:1.9777836799621582] [-1.7709710597991943:1.9454189538955688] [-1.7839975357055664:1.9241658449172974] [-1.7756587266921997:1.9663479328155518] [-5.8494305610656738:0.75250506401062012] [-0.32962584495544434:6.8350362777709961] [-0.42340183258056641:7.8629250526428223] [-0.47157439589500427:6.4138045310974121] [-0.5014912486076355:5.9627327919006348] [-0.4952024519443512:5.9198412895202637] [-0.46933409571647644:6.2579026222229004] [-0.43181297183036804:7.0619258880615234] [-0.37477079033851624:7.7933330535888672] [-0.34701904654502869:9.1025772094726562] [-0.34002974629402161:7.2123336791992188] [-0.36223134398460388:8.1783599853515625] [-0.39450138807296753:6.9316468238830566] [-0.4315706193447113:6.5647759437561035] [-0.47819849848747253:5.9221510887145996] [-0.50335454940795898:5.7331042289733887] [-0.50261557102203369:5.8932466506958008] [-0.46079453825950623:6.5784635543823242] [-0.38619363307952881:7.2679924964904785] [-0.25484022498130798:7.0338282585144043] [-2.9694643020629883:3.2816839218139648] [-1.3658342361450195:1.351125955581665] [-1.8297858238220215:1.7173184156417847] [-2.4468605518341064:1.6072264909744263] [-2.4668982028961182:1.5386526584625244] [-1.7045034170150757:1.4738106727600098] [-1.6841799020767212:1.4815253019332886] [-1.6910278797149658:1.488829493522644] [-1.7066738605499268:1.5247305631637573] [-1.7209295034408569:1.4933161735534668] [-1.7129180431365967:1.4846401214599609] [-1.7280688285827637:1.4887683391571045] [-1.7144672870635986:1.4833700656890869] [-1.7061711549758911:1.4863959550857544] [-1.7140568494796753:1.4990329742431641] [-1.7236465215682983:1.5077017545700073] [-2.4615347385406494:1.4747747182846069] [-2.5934393405914307:1.5629277229309082] [-1.9591947793960571:1.7001410722732544] [-1.4136995077133179:1.3116588592529297] [-1.4136995077133179:1.3116588592529297] [-1.9591947793960571:1.7001410722732544] [-2.6133921146392822:1.5975601673126221] [-2.46248459815979:1.4784716367721558] [-1.7234424352645874:1.5073539018630981] [-1.7140568494796753:1.4990329742431641] [-1.7061711549758911:1.4863959550857544] [-1.7144672870635986:1.4833700656890869] [-1.7280688285827637:1.4887683391571045] [-1.7129180431365967:1.4846401214599609] [-1.7209295034408569:1.4933161735534668] [-1.7066738605499268:1.5247305631637573] [-1.6910278797149658:1.488829493522644] [-1.6841799020767212:1.4815253019332886] [-1.7043442726135254:1.4726800918579102] [-2.4614584445953369:1.5278465747833252] [-2.4254524707794189:1.5668531656265259] [-1.8297858238220215:1.7173184156417847] [-1.3658342361450195:1.351125955581665] [-2.7145085334777832:3.4305624961853027] [-0.98509520292282104:5.8053913116455078] none [-2.1371495723724365:4.1707077026367188] [-2.3071005344390869:3.1359124183654785] [-2.3504626750946045:3.4131336212158203] [-2.0853681564331055:3.7884190082550049] none [-2.9293107986450195:3.4926450252532959] [-3.4926450252532959:2.9293107986450195] none [-2.0853681564331055:3.7884190082550049] [-2.3504626750946045:3.4131336212158203] [-2.3071005344390869:3.1359124183654785] [-2.1371495723724365:4.1707077026367188] none [-3.4926450252532959:2.9293107986450195] [-2.9293107986450195:3.4926450252532959] none [-2.6724321842193604:2.4643399715423584] [-2.8424196243286133:2.5174717903137207] [-3.5719163417816162:3.6567375659942627] [-2.4643399715423584:2.6724321842193604] [-2.5174717903137207:2.8424196243286133] [-2.8424196243286133:2.5174717903137207] [-2.6724321842193604:2.4643399715423584] [-3.6567375659942627:3.5719163417816162] [-2.5174717903137207:2.8424196243286133] [-2.4643399715423584:2.6724321842193604] [-1.3934359550476074:1.334746241569519] [-1.3921288251876831:1.3687317371368408] [-1.3687317371368408:1.3921288251876831] [-1.334746241569519:1.3934359550476074] [-0.85147976875305176:4.6481833457946777] [-1.1001079082489014:3.8735599517822266] [-0.92044395208358765:5.2600460052490234] [-0.89345818758010864:5.737821102142334] [-0.80925869941711426:5.748600959777832] [-1.0486437082290649:5.8637785911560059] [-3.2529833316802979:2.7826693058013916] [-2.7826693058013916:3.2529833316802979] none [-2.1457045078277588:3.0768430233001709] [-2.9664034843444824:3.6134850978851318] [-2.4822068214416504:2.8161787986755371] [-2.7390239238739014:4.3312187194824219] [-0.2071099579334259:7.5918912887573242] [-4.1527528762817383:3.212127685546875] [-3.4682161808013916:4.2028007507324219] [-0.2071099579334259:7.5918912887573242] [-3.046851634979248:2.9484059810638428] [-2.5702688694000244:2.3643898963928223] [-2.5299811363220215:2.3746833801269531] [-3.9049355983734131:3.8658573627471924] [-2.3643898963928223:2.5702688694000244] [-2.3746833801269531:2.5299811363220215] [-1.349708080291748:2.1003267765045166] [-1.3464275598526001:2.1292474269866943] [-1.3934359550476074:1.334746241569519] [-1.3554559946060181:1.3384798765182495] [-1.3801501989364624:1.3551862239837646] [-1.3708945512771606:1.3460980653762817] [-1.3730632066726685:1.3838465213775635] [-1.3773083686828613:1.353571891784668] [-1.3769044876098633:1.3590689897537231] [-1.3543603420257568:1.3602591753005981] [-1.3912793397903442:1.3554677963256836] [-1.387016773223877:1.3566114902496338] [-1.3960295915603638:1.3524316549301147] [-1.394123911857605:1.3505854606628418] [-1.3933110237121582:1.3462820053100586] [-1.405397891998291:1.3351280689239502] [-1.3622331619262695:1.3699512481689453] [-1.3880650997161865:1.3856542110443115] [-1.338369607925415:1.4057501554489136] [-1.4001361131668091:1.370038628578186] [-1.3921288251876831:1.3687317371368408] [-1.3687317371368408:1.3921288251876831] [-1.370038628578186:1.4001361131668091] [-1.4057501554489136:1.338369607925415] [-1.3856542110443115:1.3880650997161865] [-1.3699512481689453:1.3622331619262695] [-1.3351280689239502:1.405397891998291] [-1.3462820053100586:1.3933110237121582] [-1.3505854606628418:1.394123911857605] [-1.3524316549301147:1.3960295915603638] [-1.3566114902496338:1.387016773223877] [-1.3554677963256836:1.3912793397903442] [-1.3602591753005981:1.3543603420257568] [-1.3590689897537231:1.3769044876098633] [-1.353571891784668:1.3773083686828613] [-1.3838465213775635:1.3730632066726685] [-1.3460980653762817:1.3708945512771606] [-1.3551862239837646:1.3801501989364624] [-1.3384798765182495:1.3554559946060181] [-1.334746241569519:1.3934359550476074] [-2.937720775604248:3.2350974082946777] [-4.4407787322998047:2.9462308883666992] [-0.38616740703582764:5.8717498779296875] [-3.6784565448760986:0.35644057393074036] [-2.7105705738067627:3.0239179134368896] [-3.2256808280944824:2.6806223392486572] [-2.4726786613464355:3.2424542903900146] [-3.5424857139587402:2.8272292613983154] [-2.7709395885467529:3.2179431915283203] [-3.2042715549468994:2.8583729267120361] [-3.4180207252502441:3.3188724517822266] [-2.4775583744049072:2.3668808937072754] [-2.7661974430084229:3.1880555152893066] [-2.7496082782745361:3.5747113227844238] [-3.5843899250030518:2.8993322849273682] [-0.6153101921081543:4.1100597381591797] [-3.1245384216308594:0.41259071230888367] [-2.4193305969238281:3.5662856101989746] [-3.0202507972717285:2.9079635143280029] [-2.2861843109130859:3.8812689781188965] [-3.6867420673370361:2.9856886863708496] [-2.4944822788238525:3.8434193134307861] [-2.9857234954833984:2.960545539855957] [-3.4997062683105469:3.4175682067871094] [-2.6852531433105469:2.5771224498748779] [-2.5706100463867188:3.7559196949005127] [-0.70966112613677979:6.2627925872802734] [-0.80393105745315552:3.9955627918243408] none [-0.78429198265075684:4.0404534339904785] [-0.63462096452713013:6.3201370239257812] [-0.73909235000610352:4.5698814392089844] [-0.61677753925323486:6.2172307968139648] [-0.68732136487960815:4.3560090065002441] [-0.58522456884384155:5.9900312423706055] [-0.67636948823928833:4.4749784469604492] [-5.4823241233825684:4.9750633239746094] [-4.0615625381469727:5.8920550346374512] [-0.68977534770965576:6.2167654037475586] [-3.3464319705963135:2.7665936946868896] [-3.126046895980835:2.8829550743103027] [-1.0462405681610107:2.1863946914672852] [-3.3683280944824219:0.92945963144302368] [-3.3033874034881592:2.3615679740905762] [-3.589618444442749:2.8313348293304443] [-3.3006100654602051:2.5776674747467041] [-4.8136796951293945:2.9017364978790283] [-3.4040262699127197:2.6705570220947266] [-3.2338628768920898:2.9754865169525146] [-3.417515754699707:3.3522789478302002] [-2.0185108184814453:2.0842111110687256] [-3.5469815731048584:2.6709141731262207] [-3.3470413684844971:2.9630041122436523] [-3.1290678977966309:2.8826084136962891] [-1.0462405681610107:2.1863946914672852] [-3.3781630992889404:0.92483633756637573] [-3.5090887546539307:2.8553874492645264] [-3.4681229591369629:2.9978847503662109] [-3.3066623210906982:2.5874457359313965] [-4.0327186584472656:2.9981884956359863] [-3.131181001663208:2.5859730243682861] [-3.372464656829834:2.7685601711273193] [-3.3407583236694336:3.2563691139221191] [-2.0842111110687256:2.0185108184814453] [-3.3662822246551514:2.5991592407226562] [-3.4637649059295654:2.7981221675872803] [-2.8867743015289307:4.1054234504699707] [-3.5503880977630615:2.6699178218841553] [-3.74991774559021:2.6047487258911133] [-11.901185035705566:7.700047492980957]
tree_sizes=665 589 676 744 674 508 562 651 509 584 603 584 687 689 856 505 594 771 727 741 759 585 677 697 596 502 672 519 706 574 663 499 685 713 707 616 591 664 681 506 586 680 659 585 670 661 575 668 572 693 700 707 602 766 675 681 768 697 764 676 710 773 663 599 669 685 684 711 667 575 667 596 684 766 783 503 616 674 585 681 690 674 657 676 670 573 600 766 618 619 653 749 564 673 655 764 587 539 742 825 771 777 669 654 756 763 734 776 670 600 607 607 591 673 764 578 693 691 697 599 669 670 575 688 797 712 566 650 494 573 556 680 566 525 663 479 595 597 683 693 574 578 678 679 569 660 589 599 727 656 666 670 732 682 650 571 743 791 661 575 637 642 669 599 583 751 708 753 638 662 581 645 680 662 680 675 567 657 638 585 830 565 587 761 751 563 659 657 726 735 664 659 678 674 765 647 648 747 648 598 757 505 571 665 678 752 678 567 664 563 749 598 576 685 781 673 688 748 594 704 665 588 910 600 655 848 721 506 660 652 763 603 749 664 582 855 776 784 683 678 656 636 666 668 727 563 492 564 706 673 638 583 679 769 672 597 590 729 690 812 720 666 697 769 653 705 660 654 652 861 756 664 821 752 585 749 726 643 675 494 779 737 730 677 635 654 673 572 645 656 623 577 733 756 639 742 675 640 748 661 694 821 601 653 744 671 585 665 717 578 754 582 822 840 720 652 644 718 587 726 658 749 653 582 676 679 746 652 575 740 732 648 569 655 721 662 746 780 646 626 569 739 751 678 729 660 553 709 720 663 734 653 747 625 669 732 636 682 658 650 703 655 776 662 727 677 720 731 668 729 763 639 726 743 708 731 820 732 845 682 576 740 595 656 806 476 655 650 661 560 670 671 651 725 735 824 749 789 712 673 820 676 564 739 753 714 672 746 591 668 707 652 588 568 592 725 651 544 770 661 721 760 575 576 727 755 637 727 681 741 793 650 741 551 824 721 714 658 670 742 584 803 655 762 726 635 762 677 603 687 565 632 592 737 668 554 757 684 568 645 733 622 769 594 595 739 661 691 821 577 645 662 735 590 759 762 749 733 608 748 735 484 641 573 667 747 756 728 630 646 714 501 677 665 765 668 603 682 746 746 570 625 726 650 650 569 570 655 728 732 671 664 676 654 631 583 730 641 729 721 681 641 664 742 731 736 656 743 746 639 824 800 653 582 736 645 747 712 726 734 741 667 674 745 654 653 688 659 749 658 652 805 810 597 709 627 665 728 593 742 493 749 655 654 569 748 719 641 654 622 749 551 489 685 726 580 643 643 494 684 662 649 649 648 728 679 668 729 752 812 675 641 512 662 752 641 664 663 731 754 659 649 726 658 651 748 570 578 589 654 808 649 657 562 686 634 568 658 656 710 655 670 658 637 665 557 566 661 522 662 649 581 736 647 722 891 703 653 652 552 726 764 577 654 650 728 676 572 687 721 689 808 586 674 592 751 824 731 576 638 745 560 746 724 671 648 623 661 564 713 722 719 562 550 638 571 658 634 719 655 573 711 650 712 602 599 686 575 646 671 655 496 800 676 630 571 752 766 672 675 589 820 749 589 762 750 639 650 555 641 713 666 589 567 576 670 742 503 582 578 581 585 505 597 762 580 685 427 586 660 489 656 557 557 577 655 657 650 577 662 636 639 707 728 657 761 838 769 644 659 665 653 658 651 651 751 714 573 633 633 630 582 656 570 499 552 648 495 623 732 485 511 478 662 718 576 661 723 658 732 581 672 578 570 700 569 652 710 815 658 658 570 565 638 655 595 584 673 589 557 577 547 572 657 652 660 811 488 856 642 580 762 667 655 656 671 731 663 764 484 667 725 651 649 570 641 739 588 483 565 603 619 570 661 666 637 652 573 661 573 577 573 576 670 646 583 565 501 494 498 665 574 576 756 633 642 573 636 716 735 653 643 569 806 654 656 570 733 579 651 568 650 662 654 657 727 742 724 656 642 665 800 622 645 648 595 640 636 549 588 565 635 738 622 788 545 569 634 620 551 724 578 573 652 652 661 657 655 747 776 584 599 555 499 660 572 579 729 823 712 664 639 673 557 657 473 584 572 570 658 660 622 622 589 651 553 565 476 570 646 758 564 573 620 575 650 554 733 656 587 658 738 614 658 652 725 563 598 647 671 722 645 500 590 576 646 676 628 654 657 559 836 669 670 574 652 591 721 662 585 546 569 650 620 656 644 593 656 663 596 553 732 649 750 629 569 636 807 574 571 681 632 829 490 654 581 600 723 495 563 738 589 654 652 424 660 654 668 562 720 661 652 626 566 584 728 641 646 668 556 661 736 665 551 643 658 667 640 499 511 578 484 665 591 574 649 507 662 656 580 633 406 735 565 789 711 637 579 565 570 644 481 559 565 653 560 476 654 768 748 749 677 656 671 574 659 573 592 579 494 591 618 576 588 640 719 572 664 649 676 579 600 682 657 661 603 587 585 632 646 649 485 557 553 653 810 560 584 649 574 631 631 572 585 753 580 751 647 646 585 660 640 598 580 637 568 577 585 490 565 672 669 657 595 639 630 564 638 662 562 639 569 659 664 727 627 639 551 799 582 587 647 638 577 485 478 414 588 548 427 640 480 639 553 572 590 553 571 630 571 655 574 476 478 500 517 658 658 498 571 711 660 499 601 671 652 578 637 658 639 659 656 503 746 640 650 749 644 662 669 651 572 639 641 638 741 566 556 659 639 641 501 554 667 708 550 649 749 672 654 580 642 653 629 591 663 667 653 652 648 481 551 640 566 664 516 477 569 647 658 640 733 666 565 570 566 554 568 649 669 690 559 764 668 661 726 577 648 677 724 730 655 721 584 650 579 495 577 663 712 487 501 480 731 477 602 569 655 620 573 479 504 629 630 643 734 644 616 576 640 571 498 503 515 571 643 633 562 645 659 547 734 553 566 665 738 569 580 576 643 585 577 656 629 638 706 549 657 625 626 555 639 575 616 633 635 570 723 651 639 654 718 664 725 657 741 585 656 714 653 503 508 583 632 716 581 646 714 504 635 510 748 568 559 719 491 577 502 738 414 487 560 579 592 551 550 484 554 596 579 656 640 559 576 491 555 497 479 406 561 573 641 563 496 573 736 645 561 571 640 575 643 587 576 551 560 501 636 556 577 585 641 560 569 595 528 585 691 654 652 660 657 712 588 582 713 575 557 644 576 602 577 429 582 555 667 586 485 508 481 578 585 592 504 599 581 590 492 640 570 480 719 548 652 648 648 552 624 727 477 649 549 555 491 476 573 496 709 656 564 577 659 731 746 558 584 725 633 556 556 663 585 663 739 757 749 491 583 653 649 648 575 560 482 572 480 659 580 571 585 486 572 572 582 569 571 572 556 565 641 577 578 587 500 657 504 590 729 661 597 647 661 496 490 478 653 651 580 581 578 657 653 663 590 725 726 583 741 690 653 566 569 641 634 787 569 572 644 472 636 480 547 630 568 512 601 579 579 526 648 510 559 670 653 478 552 628 559 643 667 695 634 665 651 599 573 632 657 582 734 561 602 654 712 594 713 738 647 554 481 555 641 670 568 500 478 480 481 553 579 579 493 645 572 513 728 546 555 487 674 655 568 567 647 572 809 729 499 479 476 566 558 406 475 598 729 631 597 724 848 655 492 699 486 658 554 654 561 592 490 480 654 588 474 708 478 478 585 565 566 641 562 553 643 644 481 485 569 574 563 634 551 549 619 654 643 654 490 502 716 582 595 583 644 644 572 577 712 728 581 583 652 640 506 569 633 640 480 493 715 553 570 666 484 478 649 576 591 496 654 650 645 410 653 552 493 579 562 639 591 649 501 626 569 737 588 569 565 562 566 580 514 650 723 488 481 659 478 567 571 625 635 640 649 554 667 513 600 556 649 656 744 652 476 747 578 662 581 660 624 571 484 640 580 484 479 566 639 655 650 560 587 673 569 652 574 644 560 568 554 561 544 479 657 585 581 511 569 658 802 652 481 554 574 579 664 740 578 485 559 591 499 557 760 672 663 723 658 644 502 499 347 493 481 547 634 409 717 729 565 585 411 642 550 668 560 734 799 721 581 593 717 553 482 555 552 638 690 555 627 482 623 712 660 558 562 703 561 582 737 572 494 560 562 730 565 653 648 650 574 716 650 646 749 568 547 639 617 582 688 560 584 587 647 472 639 634 560 556 699 569 640 570 634 556 621 570 646 568 574 575 559 642 506 637 477 582 651 631 581 748 734 569 646 410 481 626 480 501 479 648 637 743 685 684 501 646 565 572 420 648 665 576 635 564 550 571 501 566 649 580 486 578 650 562 653 576 721 478 566 627 641 484 591 561 483 484 642 476 480 577 577 640 650 715 647 721 707 716 572 584 721 634 653 483 595 646 484 555 555 554 676 554 559 516 501 474 631 579 572 579 566 578 487 728 566 733 570 657 638 565 649 648 580 548 502 404 483 653 476 637 642 653 659 571 486 580 549 633 737 551 552 556 483 582 567 673 550 581 639 799 631 632 662 567 653 643 565 654 491 660 593 558 580 551 553 480 634 479 646 472 623 478 641 543 547 635 684 573 646 634 580 560 634 556 568 589 480 637 720 560 558 659 408 485 503 568 579 653 653 641 490 655 565 659 575 577 563 580 597 636 728 658 730 650 646 564 574 742 557 481 565 626 481 551 708 593 579 566 581 572 655 574 582 592 635 575 725 654 653 558 566 483 559 480 544 479 480 497 562 549 479 480 481 482 549 654 728 493 653 722 632 568 556 720 554 642 737 646 628 643 554 480 589 471 482 549 629 477 569 582 554 553 486 477 640 730 573 707 553 634 648 476 483 427 501 503 503 572 565 632 655 564 549 646 485 582 579 650 657 652 483 729 673 560 491 642 643 631 547 670 643 575 551 479 585 641 729 684 488 562 414 566 489 585 485 577 664 566 661 562 580 569 502 552 570 578 593 506 494 552 483 814 592 560 494 553 714 552 484 653 792 498 565 740 577 578 641 650 644 475 638 568 633 498 558 563 638 488 562 651 557 664 499 655 625 632 481 629 602 724 649 673 491 560 566 651 553 492 562 734 651 638 567 648 798 661 635 643 638 662 479 617 575 561 684 563 489 650 678 578 580 593 640 735 647 498 591 571 653 569 577 645 733 558 556 583 655 647 717 492 650 577 493 490 730 812 649 657 559 475 699 626 419 647 586 494 576 491 575 642 567 585 485 508 557 658 748 730 740 680 565 650 481 573 562 755 556 773 640 734 635 644 680 501 572 668 492 507 502 579 426 488 725 489 738 557 571 725 646 565 626 560 570 494 394 483 398 483 646 739 650 638 729 635 490 646 571 562 559 575 558 625 725 491 478 502 662 578 576 581 657 573 494 630 653 646 662 551 549 499 566 730 488 416 481 555 541 410 480 493 500 489 582 421 659 654 482 561 579 566 645 486 494 572 504 495 578 542 482 500 637 568 483 641 503 565 572 580 706 721 482 649 638 500 574 626 651 634 570 558 621 481 657 484 643 482 484 634 559 478 573 586 640 551 633 482 547 635 476 576 399 566 559 500 505 502 569 620 551 644 554 569 556 670 660 566 643 503 478 487 552 491 484 630 715 669 715 634 501 630 635 718 587 656 636 565 410 568 704 481 482 642 479 642 547 557 554 561 670 578 740 565 573 479 481 555 645 408 483 640 646 587 570 585 554 810 429 556 592 577 588 625 487 548 653 557 567 663 667 567 574 805 561 484 574 578 666 429 507 738 632 580 642 431 494 549 574 571 484 574 410 577 407 643 478 480 487 478 481 565 558 644 571 567 564 549 481 578 640 494 647 492 490 654 646 648 551 480 642 657 577 406 484 494 641 624 628 618 622 501 630 488 552 412 483 556 408 645 483 553 557 576 552 587 550 555 477 482 406 501 479 640 742 574 568 570 730 557 570 576 639 569 722 575 633 663 480 483 639 570 621 558 652 408 730 642 566 595 661 649 506 568 570 562 576 593 496 572 588 494 639 674 555 622 551 552 660 569 558 489 653 404 551 484 405 480 577 492 719 486 647 583 575 567 652 721 660 479 560 481 480 629 668 720 570 746 557 714 484 631 553 568 651 483 707 580 643 554 553 551 642 652 793 561 628 639 492 563 574 584 485 598 581 541 705 628 554 549 622 671 551 582 651 645 478 662 510 577 563 578 731 500 475 429 641 588 478 553 571 727 555 547 477 574 505 652 557 717 430 481 553 560 549 480 546 549 478 562 574 558 480 482 640 647 560 518 643 482 554 719 626 559 567 582 559 558 571 501 558 407 556 495 588 407 570 626 717 557 638 640 553 642 655 409 557 559 570 559 640 481 661 491 479 563 659 425 584 653 561 650 561 494 493 672 579 408 586 550 410 647 491 558 407 484 563 476 729 559 564 569 643 658 554 643 655 581 667 578 585 561 494 578 487 594 581 649 642 578 493 567 653 548 567 794 640 557 588 660 640 568 564 660 551 636 490 589 491 710 721 483 572 571 552 481 568 480 499 496 633 571 548 551 565 712 482 569 642 554 552 578 547 405 476 563 643 656 478 581 575 647 644 572 565 485 581 560 552 703 808 641 480 580 652 564 659 554 562 557 646 563 704 595 551 544 635 729 492 476 624 648 751 740 568 729 729 647 508 586 562 564 497 496 565 653 493 560 495 473 650 487 639 652 583 631 552 641 477 637 720 702 652 709 780 482 554 483 551 409 586 555 483 553 560 490 492 496 557 552 586 569 554 637 565 638 480 551 567 584 633 502 555 647 547 486 663 562 559 547 640 660 480 572 585 737 671 635 578 502 577 478 485 577 556 642 660 552 647 479 483 580 563 572 496 568 639 636 518 569 628 550 571 566 550 589 706 479 497 478 544 645 659 643 504 569 630 585 561 554 660 636 490 636 652 732 646 804 705 737 590 481 564 483 553 553 570 410 567 638 546 482 569 559 483 566 483 483 548 545 552 563 576 646 596 493 552 642 724 574 561 662 594 559 597 489 640 595 493 571 474 554 654 496 640 482 551 559 662 554 481 499 480 664 691 591 652 577 491 599 572 566 552 725 600 569 650 647 637 653 646 724 631 718 560 645 639 651 673 552 583 663 567 557 566 558 653 597 550 565 474 786 707 491 553 572 567 483 485 577 555 496 490 649 557 642 479 557 554 481 710 742 725 493 654 737 648 649 630 560 477 558 557 489 555 728 620 550 549 480 555 406 656 405 404 653 587 490 722 550 561 648 561 572 645 552 743 552 494 548 642 569 483 480 652 571 480 546 650 525 492 632 561 563 494 556 585 541 491 644 569 730 555 634 572 637 553 641 501 571 567 641 546 549 566 480 551 475 473 641 587 632 712 601 649 571 491 616 592 501 563 556 579 477 553 558 554 618 555 564 552 568 557 655 618 718 473 659 484 481 644 644 577 493 562 552 545 513 505 483 486 479 557 511 479 566 410 547 483 492 576 625 650 551 484 636 490 584 563 626 562 478 500 555 476 587 638 661 567 569 576 640 717 568 626 705 640 634 552 650 575 481 410 641 651 637 565 475 565 553 543 646 482 496 495 579 652 648 414 738 558 483 477 658 643 405 563 648 632 660 652 548 731 562 553 554 473 480 549 662 639 650 578 569 571 498 479 326 481 395 431 648 567 554 632 566 555 651 641 568 477 557 662 698 650 481 555 638 624 484 475 707 633 505 576 500 679 569 477 498 557 551 422 477 496 507 570 637 649 559 568 552 624 481 548 651 627 562 649 549 558 407 574 569 554 496 483 483 506 501 553 497 483 477 481 408 625 590 587 627 477 565 489 665 487 561 651 492 664 584 478 624 568 624 574 573 641 561 479 477 574 522 562 482 581 501 554 620 476 614 476 479 562 492 647 734 418 561 559 654 553 571 561 656 410 659 557 639 741 561 723 584 552 549 564 556 635 643 644 555 564 635 797 645 472 580 506 572 428 480 410 482 572 485 575 636 503 476 560 421 482 563 725 493 696 724 738 629 554 547 550 662 553 654 592 418 577 476 580 559 550 626 630 635 564 553 477 493 484 482 575 552 563 482 494 631 487 485 410 482 474 550 403 479 578 555 590 483 523 692 540 587 720 720 548 500 643 566 664 479 505 483 560 553 480 557 744 488 474 557 564 494 560 638 632 641 483 570 646 636 581 564 653 465 505 501 551 405 566 482 481 554 494 482 484 550 659 698 486 552 555 554 506 496 558 555 486 562 485 571 404 552 482 480 490 474 553 563 729 582 581 727 720 593 633 564 563 652 589 645 657 651 572 504 487 488 579 561 563 406 490 477 499 579 558 597 491 579 643 564 496 563 711 630 750 568 672 550 581 726 593 479 555 646 581 649 747 655 834 713 558 491 501 559 571 497 562 484 506 502 574 657 569 563 573 476 478 434 569 492 471 323 482 638 407 407 643 720 623 481 567 503 429 478 568 572 558 554 474 619 726 579 555 546 552 503 655 480 648 638 427 478 485 648 499 565 591 496 663 493 556 501 502 475 575 399 401 398 486 489 505 494 652 575 652 492 645 573 478 630 642 559 484 480 476 568 477 493 549 488 581 503 491 417 484 410 560 565 482 589 549 407 476 427 552 618 479 733 638 564 579 565 483 483 561 659 640 649 662 645 651 724 559 601 651 571 407 556 733 479 551 507 581 578 479 655 480 561 554 643 493 494 477 484 484 408 410 496 570 637 564 567 647 494 494 408 584 484 571 477 548 658 493 583 516 575 556 488 486 408 489 482 483 587 515 659 639 662 564 565 578 502 555 490 494 567 557 552 645 557 643 638 641 658 631 654 485 718 644 625 409 550 478 484 588 627 637 481 481 627 551 484 481 574 716 570 641 393 551 582 599 548 510 639 492 578 491 647 477 503 561 563 416 492 573 579 633 658 552 662 409 485 643 651 551 727 721 635 566 547 640 586 656 650 648 646 658 509 625 499 493 581 560 644 488 653 555 514 571 622 556 581 476 477 478 482 575 502 640 580 478 725 567 560 628 736 622 577 589 720 478 582 553 554 570 424 482 558 411 654 555 570 561 569 559 564 722 480 549 575 716 493 565 490 481 555 477 550 505 645 549 488 651 480 649 576 479 554 573 635 645 492 649 692 562 500 482 406 479 578 574 666 646 730 586 645 583 490 493 411 555 482 574 480 657 552 500 563 562 657 565 567 656 638 649 639 574 637 548 554 707 502 476 546 569 493 577 645 648 562 642 637 562 545 491 568 575 497 482 555 556 596 635 559 490 513 506 480 484 485 480 555 636 488 560 487 570 576 641 570 570 563 572 500 492 671 568 489 569 556 574 557 559 497 645 558 487 657 501 564 495 652 567 575 644 565 490 406 475 544 472 407 480 564 640 553 497 485 482 646 658 489 571 557 551 547 554 655 550 628 476 494 481 636 485 481 485 483 486 500 561 495 491 506 577 493 551 574 575 640 491 560 493 562 522 648 557 549 564 412 718 548 480 570 480 552 402 481 505 566 479 484 627 482 572 642 660 396 483 551 665 567 577 600 589 561 480 548 551 555 629 480 576 484 483 502 550 569 553 577 633 467 551 512 518 643 571 491 673 489 494 653 633 463 624 638 555 642 555 560 573 486 408 334 489 477 481 719 568 638 550 571 644 563 573 569 640 477 627 474 556 481 485 471 653 563 639 594 575 416 486 565 576 648 647 500 648 493 557 475 642 585 500 490 486 654 565 421 556 480 481 493 479 492 477 482 481 484 555 577 482 553 554 556 481 548 483 564 647 632 734 639 564 645 563 637 505 570 637 492 503 482 563 660 484 550 648 478 552 478 405 485 564 485 482 570 484 717 555 716 560 621 624 619 566 335 478 550 482 564 486 665 488 569 574 392 478 483 467 482

Tree=0
num_leaves=6
num_cat=0
split_feature=59 257 243 218 123
split_gain=3.84388 4.40305 0.628215 0.30654 0.184511
threshold=-0.46702685952186579 -0.16663455218076703 0.21144807338714602 0.23810746520757678 -0.83787077665328968
decision_type=2 2 2 2 2
left_child=3 2 -2 -1 -3
right_child=1 4 -4 -5 -6
leaf_value=0.53568395737168883 0.53656779557728784 0.53769025528032155 0.53591187259518203 0.53638446445059962 0.53707933005444464
leaf_weight=330 164 264 286 217 439
leaf_count=330 164 264 286 217 439
internal_value=0.536568 0.536871 0.536181 0.535907 0.537354
internal_weight=1700 1153 450 547 703
internal_count=1700 1153 450 547 703
is_linear=0
shrinkage=1


Tree=1
num_leaves=5
num_cat=0
split_feature=237 21 205 242
split_gain=5.96892 1.08647 0.926498 0.569679
threshold=-0.15488944202661512 -0.91659626364707936 -0.050474800169467919 -1.0000000180025095e-35
decision_type=2 2 2 2
left_child=2 -2 -1 -3
right_child=1 3 -4 -5
leaf_value=8.4656131021471854e-05 -0.00098117152250800027 0 0.00091914044717832978 -0.00051879775410935535
leaf_weight=276 313 360 450 301
leaf_count=276 313 360 450 301
internal_value=0 -0.000492587 0.000642895 -0.000214392
internal_weight=1700 974 726 661
internal_count=1700 974 726 661
is_linear=0
shrinkage=0.0095


Tree=2
num_leaves=6
num_cat=0
split_feature=0 261 233 120 233
split_gain=5.661 4.04543 0.885326 0.417277 0.157185
threshold=-0.30748072266578669 0.49399130046367651 1.0604799389839175 -1.0000000180025095e-35 -0.21745859086513517
decision_type=2 2 2 2 2
left_child=3 4 -3 -1 -2
right_child=1 2 -4 -5 -6
leaf_value=-0.00098263949877552045 0.00099701201288395977 0 -0.00086841640389760655 -0.00020842673200361801 0.00040504045300275701
leaf_weight=379 454 213 166 207 281
leaf_count=379 454 213 166 207 281
internal_value=0 0.00039013 -0.000353977 -0.000760362 0.000812278
internal_weight=1700 1114 379 586 735
internal_count=1700 1114 379 586 735
is_linear=0
shrinkage=0.0095


Tree=3
num_leaves=7
num_cat=0
split_feature=205 245 257 194 257 221
split_gain=5.59574 2.67433 0.699133 0.686758 0.166512 0.0715443
threshold=-0.32285290956497187 0.74990043044090282 0.1901238635182381 -1.0431547760963438 -1.0585305690765379 -0.2580262422561645
decision_type=2 2 2 2 2 2
left_child=4 2 5 -3 -1 -2
right_child=1 3 -4 -5 -6 -7
leaf_value=-0.0012090341084607836 0.00038352580167857054 -0.00078652414284198816 0.0009349788004930173 0 -0.00046664077353623489 0
leaf_weight=222 307 165 406 152 251 197
leaf_count=222 307 165 406 152 251 197
internal_value=0 0.000331223 0.000604759 -0.00036311 -0.000881211 0.000277977
internal_weight=1700 1227 910 317 473 504
internal_count=1700 1227 910 317 473 504
is_linear=0
shrinkage=0.0095


Tree=4
num_leaves=6
num_cat=0
split_feature=254 205 96 244 1
split_gain=5.35386 1.59926 0.661382 0.40931 0.0839478
threshold=0.2206903547048569 -0.32285290956497187 1.0000000180025095e-35 -0.36850306391715998 -0.85587254166603077
decision_type=2 2 2 2 2
left_child=1 -1 -2 -3 -4
right_child=2 3 4 -5 -6
leaf_value=-0.00025885211601935304 0 0.00095538247943456221 -0.0011118773580974641 0.00033731712230945511 -0.00048316548124570851
leaf_weight=167 196 356 208 426 347
leaf_count=167 196 356 208 426 347
internal_value=0 0.000466355 -0.00060485 0.000657973 -0.000775312
internal_weight=1700 949 751 782 555
internal_count=1700 949 751 782 555
is_linear=0
shrinkage=0.0095


Tree=5
num_leaves=4
num_cat=0
split_feature=61 2 0
split_gain=4.48116 1.95666 3.19224
threshold=1.0003505051136019 -0.75209739804267872 -0.45966234803199763
decision_type=2 2 2
left_child=1 -1 -3
right_child=-2 2 -4
leaf_value=-0.00048291006538268063 -0.00096825910294081057 -0.0004041977143353003 0.00072150362006324095
leaf_weight=239 345 273 843
leaf_count=239 345 273 843
internal_value=0 0.000239151 0.00042027
internal_weight=1700 1355 1116
internal_count=1700 1355 1116
is_linear=0
shrinkage=0.0095


Tree=6
num_leaves=5
num_cat=0
split_feature=237 244 246 244
split_gain=4.67313 1.37214 0.689029 0.732914
threshold=0.10260853171348573 0.077444948256015791 0.91454467177391063 0.52339294552803051
decision_type=2 2 2 2
left_child=1 -1 3 -2
right_child=2 -3 -4 -5
leaf_value=0.00073871157695504176 0 0 -0.00092658904982728793 -0.00068005331993175482
leaf_weight=585 339 272 294 207
leaf_count=585 339 272 294 207
internal_value=0 0.000478844 -0.000515836 -0.000238302
internal_weight=1697 857 840 546
internal_count=1697 857 840 546
is_linear=0
shrinkage=0.0095


Tree=7
num_leaves=6
num_cat=0
split_feature=254 3 38 249 148
split_gain=4.77341 1.52368 1.09951 0.166687 0.134388
threshold=0.043610360473394401 -0.24897477775812146 0.53175728023052227 0.27938640117645269 0.43687911331653601
decision_type=2 2 2 2 2
left_child=2 -2 -1 -3 -5
right_child=1 3 -4 4 -6
leaf_value=0.00073594057010201044 -0.00091796472271479161 5.3756520765288184e-05 0 0 -0.00039285111161452036
leaf_weight=593 402 186 176 153 187
leaf_count=593 402 186 176 153 187
internal_value=0 -0.000471361 0.000538292 -7.24041e-05 -0.000224235
internal_weight=1697 928 769 526 340
internal_count=1697 928 769 526 340
is_linear=0
shrinkage=0.0095


Tree=8
num_leaves=4
num_cat=0
split_feature=258 0 0
split_gain=5.4687 2.23612 0.342863
threshold=0.29566569626331335 -0.45966234803199763 -0.59339773654937733
decision_type=2 2 2
left_child=1 -1 -2
right_child=2 -3 -4
leaf_value=-0.00028204386824551818 -0.00098388712355167705 0.00071274063716651357 -0.00035730479388559346
leaf_weight=230 275 746 446
leaf_count=230 275 746 446
internal_value=0 0.000449047 -0.000639229
internal_weight=1697 976 721
internal_count=1697 976 721
is_linear=0
shrinkage=0.0095


Tree=9
num_leaves=5
num_cat=0
split_feature=117 218 0 202
split_gain=4.4421 1.28693 1.18646 0.921157
threshold=1.0000000180025095e-35 -0.086710382252931581 -0.66718274354934681 -0.56101185083389271
decision_type=2 2 2 2
left_child=1 -1 -2 -4
right_child=2 -3 3 -5
leaf_value=0 -0.00094757668165089902 0.0007734896505757424 -0.00060093773393341953 9.3497698988548699e-05
leaf_weight=227 314 539 258 359
leaf_count=227 314 539 258 359
internal_value=0 0.000520439 -0.000453834 -0.000152703
internal_weight=1697 766 931 617
internal_count=1697 766 931 617
is_linear=0
shrinkage=0.0095


Tree=10
num_leaves=5
num_cat=0
split_feature=3 1 257 257
split_gain=5.0785 1.72463 1.09306 0.938782
threshold=-0.24897477775812146 -0.78716096282005299 -1.0585305690765379 -1.0000000180025095e-35
decision_type=2 2 2 2
left_child=-1 -2 -3 -4
right_child=1 2 3 -5
leaf_value=-0.00089055725172402524 -0.00042038661302874335 -0.00016559811820697335 6.9549507952336925e-05 0.0008249833790176964
leaf_weight=438 210 142 317 590
leaf_count=438 210 142 317 590
internal_value=0 0.00029273 0.00046349 0.00059354
internal_weight=1697 1259 1049 907
internal_count=1697 1259 1049 907
is_linear=0
shrinkage=0.0095


Tree=11
num_leaves=5
num_cat=0
split_feature=237 3 0 236
split_gain=4.46879 1.63151 1.53612 0.140306
threshold=-0.014436000492423771 -0.24897477775812146 1.0000000180025095e-35 0.28479148447513586
decision_type=2 2 2 2
left_child=2 -2 -1 -3
right_child=1 3 -4 -5
leaf_value=0 -0.00093547800488336813 6.7914376822536147e-05 0.00084064500406584206 -0.00019578631224668552
leaf_weight=310 391 168 481 347
leaf_count=310 391 168 481 347
internal_value=0 -0.000468413 0.000506414 -5.49196e-05
internal_weight=1697 906 791 515
internal_count=1697 906 791 515
is_linear=0
shrinkage=0.0095


Tree=12
num_leaves=6
num_cat=0
split_feature=0 261 198 36 243
split_gain=3.83361 3.06008 0.445588 0.108954 0.0883014
threshold=-0.15529908984899518 0.45535586774349218 -0.65198361873626698 1.0000000180025095e-35 -0.13024504482746121
decision_type=2 2 2 2 2
left_child=2 4 -1 -3 -2
right_child=1 3 -4 -5 -6
leaf_value=-0.00092770377438545473 0.00097541362647122446 -0.0003788892800408722 -0.00024767300285510419 0 0.000372822193812177
leaf_weight=229 408 201 431 174 233
leaf_count=229 408 201 431 174 233
internal_value=1.38644e-05 0.000395871 -0.000530226 -0.00022712 0.000803809
internal_weight=1676 1016 660 375 641
internal_count=1676 1016 660 375 641
is_linear=0
shrinkage=0.0095


Tree=13
num_leaves=6
num_cat=0
split_feature=120 120 60 80 251
split_gain=3.5952 1.38736 1.58273 0.137094 0.134042
threshold=-0.6297784000635146 1.0000000180025095e-35 1.0000000180025095e-35 0.14297690987586978 0.12165197730064393
decision_type=2 2 2 2 2
left_child=4 3 -3 -2 -1
right_child=1 2 -4 -5 -6
leaf_value=-0.00031159614644541474 -0.00023016363289084325 0.00084856482134090284 0 2.6421816453088341e-05 -0.00095546609482203128
leaf_weight=263 257 524 232 187 213
leaf_count=263 257 524 232 187 213
internal_value=1.33582e-05 0.000306883 0.000558602 -5.90486e-05 -0.000664022
internal_weight=1676 1200 756 444 476
internal_count=1676 1200 756 444 476
is_linear=0
shrinkage=0.0095


Tree=14
num_leaves=8
num_cat=0
split_feature=60 261 244 66 218 120 7
split_gain=4.81682 1.0616 0.980474 0.205764 0.157626 0.104633 0.0157688
threshold=-0.47986899316310877 -0.088223326951265321 0.077444948256015791 0.48944571614265447 -1.0105641484260557 -0.6297784000635146 -0.12595823034644124
decision_type=2 2 2 2 2 2 2
left_child=1 3 5 -1 -4 -2 -3
right_child=2 6 4 -5 -6 -7 -8
leaf_value=0.0010433853876103255 -0.00021046974278078636 0 -0.0010906916215093327 0.00026264870496831732 -0.00042664782444570354 0.00011953607408651274 0.00010712695445739123
leaf_weight=321 155 167 181 163 367 166 156
leaf_count=321 155 167 181 163 367 166 156
internal_value=1.27644e-05 0.000556251 -0.000459488 0.000842686 -0.000703183 0 3.53202e-05
internal_weight=1676 807 869 484 548 321 323
internal_count=1676 807 869 484 548 321 323
is_linear=0
shrinkage=0.0095


Tree=15
num_leaves=4
num_cat=0
split_feature=96 258 60
split_gain=4.60099 1.47598 0.982066
threshold=0.54752866923809063 0.85157123208045971 1.0000000180025095e-35
decision_type=2 2 2
left_child=1 2 -1
right_child=-2 -3 -4
leaf_value=0.00064282286894570817 -0.00083402370630559922 -0.00048173638765309037 0
leaf_weight=751 414 148 363
leaf_count=751 414 148 363
internal_value=1.26079e-05 0.000314405 0.000446857
internal_weight=1676 1262 1114
internal_count=1676 1262 1114
is_linear=0
shrinkage=0.0095


Tree=16
num_leaves=5
num_cat=0
split_feature=117 205 59 238
split_gain=3.44195 1.94274 0.569988 0.158783
threshold=0.62977840006351482 -0.17693606764078137 -0.26920570433139795 -0.62071251869201649
decision_type=2 2 2 2
left_child=1 3 -3 -1
right_child=-2 2 -4 -5
leaf_value=-0.00043147109245796528 -0.0006501982362183236 1.0162949600792949e-05 0.00071835018031545027 0
leaf_weight=172 476 225 610 193
leaf_count=172 476 225 610 193
internal_value=1.22336e-05 0.000299806 0.00056235 -0.000223104
internal_weight=1676 1200 835 365
internal_count=1676 1200 835 365
is_linear=0
shrinkage=0.0095


Tree=17
num_leaves=7
num_cat=0
split_feature=258 61 20 0 221 169
split_gain=4.17741 1.21424 0.464235 0.255415 0.0379494 0.00652875
threshold=-0.18867497891187665 0.81167474389076244 0.17895253747701648 -0.54728206992149342 0.81196349859237682 1.0000000180025095e-35
decision_type=2 2 2 2 2 2
left_child=2 3 -1 -2 5 -5
right_child=1 -3 -4 4 -6 -7
leaf_value=0.00086253405355778785 -0.00039705647353024167 -0.0008120665808551517 0.00014059877917245244 0.00011465707049685294 -8.6591058057604702e-05 0
leaf_weight=392 163 340 238 220 140 183
leaf_count=392 163 340 238 220 140 183
internal_value=1.19124e-05 -0.000338332 0.000637075 -6.71388e-05 0 7.60165e-05
internal_weight=1676 1046 630 706 543 403
internal_count=1676 1046 630 706 543 403
is_linear=0
shrinkage=0.0095


Tree=18
num_leaves=7
num_cat=0
split_feature=258 60 80 242 1 207
split_gain=3.6791 1.30876 0.758636 0.635339 0.262307 0.182906
threshold=-0.41998280584812159 -0.47986899316310877 -0.51881788671016682 0.022738564759492878 -0.58708900213241566 -0.38323639333248133
decision_type=2 2 2 2 2 2
left_child=2 5 -1 4 -3 -2
right_child=1 3 -4 -5 -6 -7
leaf_value=0 0 -0.00044760755644210684 0.00092785428881784105 -0.00085805639788165042 0 0.00033919782779105989
leaf_weight=168 201 193 346 343 244 177
leaf_count=168 201 193 346 343 244 177
internal_value=0 -0.000292857 0.000670168 -0.000521975 -0.000188765 0.000105674
internal_weight=1672 1158 514 780 437 378
internal_count=1672 1158 514 780 437 378
is_linear=0
shrinkage=0.0095


Tree=19
num_leaves=7
num_cat=0
split_feature=97 3 120 165 251 183
split_gain=4.64896 1.61994 0.64948 0.155607 0.108609 0.0832962
threshold=-0.71612641215324391 -0.16875760257244107 1.0000000180025095e-35 1.0000000180025095e-35 0.26546014845371252 1.0000000180025095e-35
decision_type=2 2 2 2 2 2
left_child=2 4 -1 5 -2 -3
right_child=1 3 -4 -5 -6 -7
leaf_value=0 -0.00042610353201110948 0.00029989582867398008 0.0008691948060712281 -0.0001742252999451467 -0.0010582786868464829 0
leaf_weight=154 321 150 437 252 213 145
leaf_count=154 321 150 437 252 213 145
internal_value=0 -0.00036614 0.000679115 0 -0.000736536 0.000145138
internal_weight=1672 1081 591 547 534 295
internal_count=1672 1081 591 547 534 295
is_linear=0
shrinkage=0.0095


Tree=20
num_leaves=7
num_cat=0
split_feature=117 257 262 73 70 232
split_gain=4.1654 1.71653 0.512734 0.249827 0.0460891 0.0105724
threshold=1.0000000180025095e-35 -0.077444948256015764 0.94763344526290905 0.30559960752725607 0.29394306242465978 -0.26467336714267725
decision_type=2 2 2 2 2 2
left_child=1 -1 3 4 -2 -3
right_child=2 5 -4 -5 -6 -7
leaf_value=0 3.8817849253621628e-05 0.0010056698615056037 -0.00082585134567156175 -0.00042761656969425175 -0.00014950957188747174 0.00032233248867270066
leaf_weight=257 198 342 262 291 169 153
leaf_count=257 198 342 262 291 169 153
internal_value=0 0.000526992 -0.00042411 -0.000217538 0 0.000855374
internal_weight=1672 752 920 658 367 495
internal_count=1672 752 920 658 367 495
is_linear=0
shrinkage=0.0095


Tree=21
num_leaves=5
num_cat=0
split_feature=254 258 258 257
split_gain=3.79644 1.04227 0.565283 0.56507
threshold=-0.28525248169898981 0.086082924157381072 1.1991719007492068 -0.16663455218076703
decision_type=2 2 2 2
left_child=3 -2 -3 -1
right_child=1 2 -4 -5
leaf_value=0 0.00011770158843620042 -0.00030705489296384796 -0.0010690936747880357 0.00078646927352419302
leaf_weight=142 255 664 168 443
leaf_count=142 255 664 168 443
internal_value=0 -0.000328182 -0.000498873 0.000618571
internal_weight=1672 1087 832 585
internal_count=1672 1087 832 585
is_linear=0
shrinkage=0.0095


Tree=22
num_leaves=6
num_cat=0
split_feature=120 60 61 73 84
split_gain=4.02612 1.25539 0.880156 0.231397 0.227932
threshold=1.0000000180025095e-35 1.0000000180025095e-35 0.39658807218074804 0.62690860033035289 -0.75012990832328785
decision_type=2 2 2 2 2
left_child=2 -2 4 -4 -1
right_child=1 -3 3 -5 -6
leaf_value=0.00013150570841317355 0.00077036841419900377 0 -0.00034975518707611885 -0.001076093148518531 -0.00025762734311263495
leaf_weight=175 529 223 282 191 272
leaf_count=175 529 223 282 191 272
internal_value=0 0.000518004 -0.000417063 -0.000708615 -4.21811e-05
internal_weight=1672 752 920 473 447
internal_count=1672 752 920 473 447
is_linear=0
shrinkage=0.0095


Tree=23
num_leaves=6
num_cat=0
split_feature=258 257 59 257 257
split_gain=5.00263 1.6545 0.298169 0.0730782 0.0400944
threshold=0.36850850284099584 -0.34501375257968897 -1.1396187543869016 0.36850306391716009 1.0000000180025095e-35
decision_type=2 2 2 2 2
left_child=1 -1 -2 4 -3
right_child=2 3 -4 -5 -6
leaf_value=-0.00012306619840333217 -0.001069451755432478 3.4583121501886681e-05 -0.00039330910869129197 0.00087733827031023835 0.00053739732899877267
leaf_weight=268 187 171 486 363 197
leaf_count=268 187 171 486 363 197
internal_value=0 0.000429342 -0.000627872 0.000670289 0.000382996
internal_weight=1672 999 673 731 368
internal_count=1672 999 673 731 368
is_linear=0
shrinkage=0.0095


Tree=24
num_leaves=5
num_cat=0
split_feature=258 244 169 221
split_gain=3.97096 1.42734 0.525488 0.108497
threshold=0.16339852660894397 0.43420335650444036 -0.94864358007907856 -0.54200398921966542
decision_type=2 2 2 2
left_child=1 -1 -2 -4
right_child=2 -3 3 -5
leaf_value=0.00065947441659319349 0 -0.00017874419524545394 -9.6790691781878878e-05 -0.00068004209816468033
leaf_weight=733 156 178 165 467
leaf_count=733 156 178 165 467
internal_value=2.24589e-05 0.000464473 -0.000452337 -0.000573987
internal_weight=1699 911 788 632
internal_count=1699 911 788 632
is_linear=0
shrinkage=0.0095


Tree=25
num_leaves=4
num_cat=0
split_feature=0 2 124
split_gain=3.26695 3.9757 0.567858
threshold=-0.85625687241554249 -0.83323863148689259 -0.94599238038063038
decision_type=2 2 2
left_child=-1 -2 -3
right_child=1 2 -4
leaf_value=-0.00079315650466181792 -0.00068278293772408181 0 0.00062051611188859777
leaf_weight=336 296 155 912
leaf_count=336 296 155 912
internal_value=2.18003e-05 0.000245073 0.000530486
internal_weight=1699 1363 1067
internal_count=1699 1363 1067
is_linear=0
shrinkage=0.0095


Tree=26
num_leaves=6
num_cat=0
split_feature=61 1 97 0 78
split_gain=4.1411 1.68398 0.891377 0.66793 0.0955069
threshold=0.81167474389076244 -0.92054226994514454 0.64235371351242077 -0.058456240221858018 0.60069580376148235
decision_type=2 2 2 2 2
left_child=1 -1 3 -3 -4
right_child=-2 2 4 -5 -6
leaf_value=-0.00049985833629034458 -0.00084414383324031138 0 -0.00013719216865779583 0.00076171945611892529 0.00018505084322255913
leaf_weight=177 370 216 177 610 149
leaf_count=177 370 216 177 610 149
internal_value=2.12574e-05 0.000285162 0.000431591 0.000597041 0
internal_weight=1699 1329 1152 826 326
internal_count=1699 1329 1152 826 326
is_linear=0
shrinkage=0.0095


Tree=27
num_leaves=4
num_cat=0
split_feature=258 0 0
split_gain=4.40884 2.67102 0.32065
threshold=0.5985383689403535 -0.84242218732833851 0.19056824594736102
decision_type=2 2 2
left_child=1 -1 -3
right_child=-2 2 -4
leaf_value=-0.00058154822062144362 -0.00071358212306323326 0.00026104177580461613 0.00075468374410538194
leaf_weight=200 494 455 550
leaf_count=200 494 455 550
internal_value=2.08828e-05 0.00034676 0.000561135
internal_weight=1699 1205 1005
internal_count=1699 1205 1005
is_linear=0
shrinkage=0.0095


Tree=28
num_leaves=6
num_cat=0
split_feature=254 244 246 218 244
split_gain=3.20227 1.10637 0.744166 0.793929 0.31328
threshold=0.2206903547048569 0.2558241486549378 0.99358487129211437 -0.40663146972656244 1.0000000180025095e-35
decision_type=2 2 2 2 2
left_child=1 4 3 -2 -1
right_child=2 -3 -4 -5 -6
leaf_value=0.00072960854200974142 -0.00061476014260855767 -3.0956664140695713e-05 -0.00089016654452824461 7.8524049062989479e-05 1.1823576643302073e-05
leaf_weight=530 212 252 235 315 155
leaf_count=530 212 252 235 315 155
internal_value=2.05199e-05 0.000407454 -0.000417734 -0.000148861 0.00060947
internal_weight=1699 937 762 527 685
internal_count=1699 937 762 527 685
is_linear=0
shrinkage=0.0095


Tree=29
num_leaves=5
num_cat=0
split_feature=258 244 257 251
split_gain=3.72488 1.53698 0.601971 0.407966
threshold=0.31227897107601171 0.52339294552803051 -0.077444948256015764 -0.79818680882453907
decision_type=2 2 2 2
left_child=1 2 -1 -2
right_child=3 -3 -4 -5
leaf_value=0 0 -0.0002742109144630528 0.00072168623054732822 -0.00062390879236069524
leaf_weight=175 146 188 653 537
leaf_count=175 146 188 653 537
internal_value=2.0152e-05 0.000400202 0.000588114 -0.000502836
internal_weight=1699 1016 828 683
internal_count=1699 1016 828 683
is_linear=0
shrinkage=0.0095


Tree=30
num_leaves=6
num_cat=0
split_feature=97 61 246 0 18
split_gain=4.6091 1.4372 0.615674 0.444296 0.0224015
threshold=-0.71612641215324391 0.81167474389076244 0.15048903971910479 -0.72252151370048512 -1.0000000180025095e-35
decision_type=2 2 2 2 2
left_child=2 3 -1 -2 -5
right_child=1 -3 -4 4 -6
leaf_value=0.00085919364821022948 -0.00047031516990838642 -0.00079798816767503154 0 0 0.0001376125841275957
leaf_weight=460 169 403 154 254 232
leaf_count=460 169 403 154 254 232
internal_value=1.26629e-05 -0.000349473 0.000681268 -2.74622e-05 7.0573e-05
internal_weight=1672 1058 614 655 486
internal_count=1672 1058 614 655 486
is_linear=0
shrinkage=0.0095


Tree=31
num_leaves=4
num_cat=0
split_feature=0 233 1
split_gain=4.28087 3.31811 0.537188
threshold=-0.43199296295642847 0.34905023872852331 -0.89325973391532887
decision_type=2 2 2
left_child=-1 -2 -3
right_child=1 2 -4
leaf_value=-0.00066755825922651597 0.00077376000560756711 -0.00057665142501132785 0
leaf_weight=535 699 219 219
leaf_count=535 699 219 219
internal_value=1.2515e-05 0.00035857 -0.000240357
internal_weight=1672 1137 438
internal_count=1672 1137 438
is_linear=0
shrinkage=0.0095


Tree=32
num_leaves=6
num_cat=0
split_feature=254 96 21 244 232
split_gain=3.60885 0.983027 0.340284 0.113041 0.00217843
threshold=1.0000000180025095e-35 0.32111777365207678 1.0000000180025095e-35 -1.0000000180025095e-35 -0.60562917590141285
decision_type=2 2 2 2 2
left_child=2 4 -1 -3 -2
right_child=1 3 -4 -5 -6
leaf_value=0 6.925418248186957e-06 -0.0001130491005656552 0.00065820809305079122 -0.00075560026378555854 -2.6360966602227138e-05
leaf_weight=170 162 152 546 374 268
leaf_count=170 162 152 546 374 268
internal_value=1.21894e-05 -0.000351568 0.000536834 -0.000625719 0
internal_weight=1672 956 716 526 430
internal_count=1672 956 716 526 430
is_linear=0
shrinkage=0.0095


Tree=33
num_leaves=6
num_cat=0
split_feature=60 244 261 84 251
split_gain=4.41649 0.987949 0.295669 0.16911 0.157416
threshold=-0.71612641215324391 1.0000000180025095e-35 -0.10432142764329909 1.0000000180025095e-35 -0.91202065348625172
decision_type=2 2 2 2 2
left_child=2 4 -1 -3 -2
right_child=1 3 -4 -5 -6
leaf_value=0.00084906713351955143 0.00031357781829528239 -0.00022226075682010827 0.00016789426840002367 -0.00071455565399158318 -4.465015275856021e-05
leaf_weight=406 140 338 208 411 169
leaf_count=406 140 338 208 411 169
internal_value=1.18851e-05 -0.000342241 0.000666725 -0.000532339 2.8148e-05
internal_weight=1672 1058 614 749 309
internal_count=1672 1058 614 749 309
is_linear=0
shrinkage=0.0095


Tree=34
num_leaves=6
num_cat=0
split_feature=258 97 0 218 78
split_gain=4.11331 1.89727 0.411865 0.224493 0.180196
threshold=0.40045709908008581 -0.47986899316310877 -0.74096778035163868 -0.78204911947250355 -0.76198336482048024
decision_type=2 2 2 2 2
left_child=1 4 -3 -2 -1
right_child=3 2 -4 -5 -6
leaf_value=0.00027792783174594075 -0.00096180027224474244 -0.00049563921574754491 7.9390793894847699e-05 -0.00033683738659382004 0.00087586494883679425
leaf_weight=247 188 154 211 447 425
leaf_count=247 188 154 211 447 425
internal_value=1.16176e-05 0.000396343 -8.82872e-05 -0.00057076 0.000700857
internal_weight=1672 1037 365 635 672
internal_count=1672 1037 365 635 672
is_linear=0
shrinkage=0.0095


Tree=35
num_leaves=5
num_cat=0
split_feature=258 97 79 198
split_gain=3.77947 2.15841 0.749747 0.00944026
threshold=0.64326640963554393 -0.47986899316310877 -0.76198336482048024 0.82576578855514537
decision_type=2 2 2 2
left_child=1 3 -3 -1
right_child=-2 2 -4 -5
leaf_value=0.00043956210841385494 -0.00067723743674844602 -0.00069960131575811464 4.949087753170533e-05 0.00092307785031118703
leaf_weight=456 482 149 333 252
leaf_count=456 482 149 333 252
internal_value=1.13345e-05 0.000315282 -0.000126747 0.000655411
internal_weight=1672 1190 482 708
internal_count=1672 1190 482 708
is_linear=0
shrinkage=0.0095


Tree=36
num_leaves=5
num_cat=0
split_feature=21 61 246 242
split_gain=3.08961 2.53374 0.533518 0.218795
threshold=0.44341878592967993 0.69846928119659435 0.71694406867027294 0.71559149026870739
decision_type=2 2 2 2
left_child=1 2 3 -1
right_child=-2 -3 -4 -5
leaf_value=0.00028007442358257332 0.00074209428042209201 -0.00086827819741818932 -0.000342182954554382 0
leaf_weight=510 367 399 233 161
leaf_count=510 367 399 233 161
internal_value=-5.54338e-06 -0.000239359 9.10104e-06 0.000174478
internal_weight=1670 1303 904 671
internal_count=1670 1303 904 671
is_linear=0
shrinkage=0.0095


Tree=37
num_leaves=6
num_cat=0
split_feature=3 262 97 99 232
split_gain=4.55945 1.055 0.443605 0.0607263 0.0777675
threshold=-0.24897477775812146 0.17228044569492343 0.64235371351242077 -0.34453745186328882 0.16971742361783984
decision_type=2 2 2 2 2
left_child=-1 2 -2 -3 -5
right_child=1 3 -4 4 -6
leaf_value=-0.00087926679300405182 0.00061496564282352063 2.4016918160523456e-05 0 0 -0.00027366663010388811
leaf_weight=416 584 156 171 177 166
leaf_count=416 584 156 171 177 166
internal_value=-5.48102e-06 0.000263364 0.000490042 -2.39142e-05 -0.000127987
internal_weight=1670 1254 755 499 343
internal_count=1670 1254 755 499 343
is_linear=0
shrinkage=0.0095


Tree=38
num_leaves=6
num_cat=0
split_feature=3 249 206 243 6
split_gain=4.47459 1.22026 0.293 0.185797 0.0318942
threshold=-0.24897477775812146 -1.0000000180025095e-35 -0.93693917989730824 -0.005160956527106463 -1.0000000180025095e-35
decision_type=2 2 2 2 2
left_child=-1 3 -3 -2 -4
right_child=1 2 4 -5 -6
leaf_value=-0.00087098345014923536 0.00074329079823691913 -0.00033538945649339296 0 0.00016702058081352199 0.00018819823172786293
leaf_weight=416 369 189 245 238 213
leaf_count=416 369 189 245 238 213
internal_value=-5.20674e-06 0.000260965 0 0.000566276 0.000101875
internal_weight=1670 1254 647 607 458
internal_count=1670 1254 647 607 458
is_linear=0
shrinkage=0.0095


Tree=39
num_leaves=4
num_cat=0
split_feature=3 258 97
split_gain=4.39264 1.31702 0.737636
threshold=-0.24897477775812146 0.60812294483184826 1.0000000180025095e-35
decision_type=2 2 2
left_child=-1 2 -2
right_child=1 -3 -4
leaf_value=-0.00086277814531747108 0.00058905465955229927 -0.00031788553032229927 0
leaf_weight=416 705 232 317
leaf_count=416 705 232 317
internal_value=-4.80025e-06 0.000258769 0.000418103
internal_weight=1670 1254 1022
internal_count=1670 1254 1022
is_linear=0
shrinkage=0.0095


Tree=40
num_leaves=5
num_cat=0
split_feature=126 97 236 97
split_gain=2.94736 1.13768 0.0896654 0.240769
threshold=-0.6297784000635146 -0.8342551290988921 0.28479148447513586 -1.0000000180025095e-35
decision_type=2 2 2 2
left_child=-1 -2 3 -3
right_child=1 2 -4 -5
leaf_value=-0.00067393995170980962 0.00063894497420618297 0.0003858541482670823 -8.5437734489263276e-05 0
leaf_weight=451 394 178 380 267
leaf_count=451 394 178 380 267
internal_value=-4.70158e-06 0.000220808 0 0.000108634
internal_weight=1670 1219 825 445
internal_count=1670 1219 825 445
is_linear=0
shrinkage=0.0095


Tree=41
num_leaves=6
num_cat=0
split_feature=3 0 61 202 84
split_gain=2.88815 1.27638 1.041 0.431197 0.165892
threshold=0.62004451453685772 -0.84242218732833851 0.54752866923809063 -0.81822943687438954 0.48920473456382757
decision_type=2 2 2 2 2
left_child=1 -1 3 -3 -5
right_child=-2 2 -4 4 -6
leaf_value=-0.00074140781227512425 0.00071767699805115213 -0.00018957366761203812 -0.00059972839916535995 0.00041146219834853478 0
leaf_weight=332 367 191 231 334 215
leaf_count=332 367 191 231 334 215
internal_value=-4.61083e-06 -0.00023124 -2.55241e-05 0.000117368 0.000276263
internal_weight=1670 1303 971 740 549
internal_count=1670 1303 971 740 549
is_linear=0
shrinkage=0.0095


Tree=42
num_leaves=6
num_cat=0
split_feature=207 0 205 243 232
split_gain=2.66263 2.3599 0.620456 0.223681 0.0334536
threshold=-0.14469084888696668 -0.058456240221858018 -0.074794277548789964 0.43415875732898718 -0.32750979065895075
decision_type=2 2 2 2 2
left_child=2 3 -1 -2 -4
right_child=1 -3 4 -5 -6
leaf_value=-0.00073519536331730962 0 0.00076775793240736485 0 -0.00037269005186941145 -0.00015642877124464157
leaf_weight=323 165 538 170 212 278
leaf_count=323 165 538 170 212 278
internal_value=0 0.000355304 -0.000400694 -0.000160037 -9.25713e-05
internal_weight=1686 915 771 377 448
internal_count=1686 915 771 377 448
is_linear=0
shrinkage=0.0095


Tree=43
num_leaves=5
num_cat=0
split_feature=258 205 258 60
split_gain=3.16163 1.42943 0.821886 0.355196
threshold=0.17298310250043872 -0.30826123058795923 0.62026339769363414 1.0000000180025095e-35
decision_type=2 2 2 2
left_child=1 -1 -2 -3
right_child=2 3 -4 -5
leaf_value=-0.00023711959899622953 0 0.00070587946734521924 -0.00070779652679387828 1.7962871805043794e-05
leaf_weight=202 294 562 450 178
leaf_count=202 294 562 450 178
internal_value=0 0.000374095 -0.000452444 0.000579603
internal_weight=1686 942 744 740
internal_count=1686 942 744 740
is_linear=0
shrinkage=0.0095


Tree=44
num_leaves=6
num_cat=0
split_feature=237 0 0 96 221
split_gain=3.19702 1.18694 0.606179 0.514859 0.0548424
threshold=-0.24852506816387174 1.0000000180025095e-35 -1.0000000180025095e-35 0.81167474389076244 -0.33418785035610193
decision_type=2 2 2 2 2
left_child=1 -1 3 -2 -4
right_child=2 -3 4 -5 -6
leaf_value=0 -0.0001576774807079064 0.00082724256196975324 0.00011603754128689968 -0.00082713279092110265 -0.0001109711508182355
leaf_weight=218 384 423 167 282 212
leaf_count=218 384 423 167 282 212
internal_value=0 0.000535397 -0.000314617 -0.000486552 0
internal_weight=1686 641 1045 666 379
internal_count=1686 641 1045 666 379
is_linear=0
shrinkage=0.0095


Tree=45
num_leaves=6
num_cat=0
split_feature=205 2 0 2 5
split_gain=2.9656 1.51239 0.909511 0.346908 0.000674892
threshold=-0.050474800169467919 -0.86512821912765492 -0.45966234803199763 0.13903910666704181 -0.15211017429828641
decision_type=2 2 2 2 2
left_child=2 -2 -1 -3 -4
right_child=1 3 4 -5 -6
leaf_value=-0.0006379016476074198 -0.00034061100507706116 0.00022578202744215462 -2.0530838106845902e-05 0.00086389698720601112 0
leaf_weight=498 141 290 141 374 242
leaf_count=498 141 290 141 374 242
internal_value=0 0.000424453 -0.00037137 0.000630544 0
internal_weight=1686 805 881 664 383
internal_count=1686 805 881 664 383
is_linear=0
shrinkage=0.0095


Tree=46
num_leaves=5
num_cat=0
split_feature=3 258 258 225
split_gain=2.78569 0.947336 0.643097 0.0521358
threshold=-0.16875760257244107 0.41323652863502508 0.071386571973562254 -0.4226516187191009
decision_type=2 2 2 2
left_child=1 -1 -2 -4
right_child=2 -3 3 -5
leaf_value=0 0.00047368942734816359 -0.00080651008541973962 0.00011059899386904369 -0.00011659457455039956
leaf_weight=271 700 361 145 209
leaf_count=271 700 361 145 209
internal_value=0 -0.00048841 0.000307223 0
internal_weight=1686 632 1054 354
internal_count=1686 632 1054 354
is_linear=0
shrinkage=0.0095


Tree=47
num_leaves=6
num_cat=0
split_feature=117 97 0 238 20
split_gain=2.43718 1.31052 0.629349 0.147663 0.108035
threshold=1.0000000180025095e-35 -0.71612641215324391 0.47648523747920996 0.36685526371002203 -1.0000000180025095e-35
decision_type=2 2 2 2 2
left_child=1 -1 3 -2 -3
right_child=2 4 -4 -5 -6
leaf_value=0.00072950715598707342 -0.00059455275423462282 0.00012580271395439127 0 -5.2233298662097447e-05 -0.00019062358620911739
leaf_weight=445 475 166 220 189 191
leaf_count=445 475 166 220 189 191
internal_value=0 0.000386631 -0.00033491 -0.000483968 0
internal_weight=1686 802 884 664 357
internal_count=1686 802 884 664 357
is_linear=0
shrinkage=0.0095


Tree=48
num_leaves=5
num_cat=0
split_feature=21 123 218 251
split_gain=2.3453 0.861964 0.606693 0.28392
threshold=0.14923914894461635 -1.0000000180025095e-35 0.21199145913124087 -0.70605322718620289
decision_type=2 2 2 2
left_child=1 -1 -2 -3
right_child=2 3 -4 -5
leaf_value=0 0 -2.1157374516632663e-05 0.00050147665452412191 -0.00071864787277334198
leaf_weight=262 278 161 562 438
leaf_count=262 278 161 562 438
internal_value=-1.65391e-05 -0.000379754 0.000322 -0.00057969
internal_weight=1701 861 840 599
internal_count=1701 861 840 599
is_linear=0
shrinkage=0.0095


Tree=49
num_leaves=6
num_cat=0
split_feature=3 123 77 96 66
split_gain=2.30109 0.848623 0.770386 0.473444 0.268095
threshold=1.0000000180025095e-35 -1.0000000180025095e-35 -0.67453432083129872 0.32111777365207678 1.0000000180025095e-35
decision_type=2 2 2 2 2
left_child=1 -1 -2 -3 -4
right_child=2 3 4 -5 -6
leaf_value=0 -0.00010358651238875562 -8.1222046768840851e-05 0.00070061117168077069 -0.00080402207520159966 0.00014285547213302251
leaf_weight=262 187 231 345 368 308
leaf_count=262 187 231 345 368 308
internal_value=-1.63365e-05 -0.000376258 0.000318825 -0.000574673 0.000483111
internal_weight=1701 861 840 599 653
internal_count=1701 861 840 599 653
is_linear=0
shrinkage=0.0095


Tree=50
num_leaves=6
num_cat=0
split_feature=3 3 80 221 235
split_gain=3.23143 0.980323 0.222335 0.232948 0.0118287
threshold=-0.24897477775812146 0.62004451453685772 -0.59667611122131337 0.73199501633644115 1.0000000180025095e-35
decision_type=2 2 2 2 2
left_child=4 2 -2 -4 -1
right_child=1 -3 3 -5 -6
leaf_value=-0.0010582466314513126 -0.00022254905442618226 0.00060362557275788636 0.00023042828714871003 -0.00010838472530630068 -0.00040965764280041485
leaf_weight=173 223 386 526 146 247
leaf_count=173 223 386 526 146 247
internal_value=-1.60673e-05 0.000203981 0 0.000114446 -0.000750649
internal_weight=1701 1281 895 672 420
internal_count=1701 1281 895 672 420
is_linear=0
shrinkage=0.0095


Tree=51
num_leaves=6
num_cat=0
split_feature=123 60 20 20 262
split_gain=2.16274 1.39285 0.205955 0.190353 0.181026
threshold=0.62977840006351482 -0.71612641215324391 -0.17714011669158933 0.71309152990579616 0.1579331308603287
decision_type=2 2 2 2 2
left_child=1 4 -3 -4 -1
right_child=-2 2 3 -5 -6
leaf_value=0.00063749015821924955 -0.00059722429580169264 0.00010547941551337936 -5.9597948039179347e-06 -0.00051605929459807535 6.1131501128639538e-06
leaf_weight=421 445 169 371 143 152
leaf_count=421 445 169 371 143 152
internal_value=-1.60923e-05 0.000168262 -8.68746e-05 -0.000205478 0.000520495
internal_weight=1701 1256 683 514 573
internal_count=1701 1256 683 514 573
is_linear=0
shrinkage=0.0095


Tree=52
num_leaves=5
num_cat=0
split_feature=61 205 233 169
split_gain=2.93247 0.833798 0.698676 0.0218739
threshold=0.69846928119659435 -0.28394176065921778 -0.17793472111225125 1.0000000180025095e-35
decision_type=2 2 2 2
left_child=1 -1 -3 -4
right_child=-2 2 3 -5
leaf_value=-0.00023351786276821406 -0.00073270172068340227 0.00059973740520004597 0.00010138714452284783 0
leaf_weight=258 405 466 281 291
leaf_count=258 405 466 281 291
internal_value=-1.57878e-05 0.000187686 0.000320176 4.06369e-05
internal_weight=1701 1296 1038 572
internal_count=1701 1296 1038 572
is_linear=0
shrinkage=0.0095


Tree=53
num_leaves=7
num_cat=0
split_feature=244 262 117 60 117 68
split_gain=2.59277 0.85524 0.679766 0.161645 0.019943 0.00316864
threshold=1.0000000180025095e-35 0.77367219328880321 0.62977840006351482 -1.0000000180025095e-35 1.0000000180025095e-35 0.4831246435642243
decision_type=2 2 2 2 2 2
left_child=1 4 3 -2 -1 -5
right_child=2 -3 -4 5 -6 -7
leaf_value=0.00064838539230940059 0 -0.00010089256922451059 -0.00077100965361246777 -0.00033210550304630775 0.00016386671415386423 0
leaf_weight=418 212 171 298 232 199 171
leaf_count=418 212 171 298 232 199 171
internal_value=-1.55146e-05 0.000364967 -0.000375141 -0.000133964 0.000539851 -0.000251384
internal_weight=1701 788 913 615 617 403
internal_count=1701 788 913 615 617 403
is_linear=0
shrinkage=0.0095


Tree=54
num_leaves=6
num_cat=0
split_feature=244 262 96 60 85
split_gain=2.40813 1.58783 0.434032 0.12593 0.0144168
threshold=0.61258256435394298 0.61824288964271557 -0.32037979364395136 -0.47986899316310877 0.71105825901031505
decision_type=2 2 2 2 2
left_child=1 2 -1 -4 -3
right_child=-2 4 3 -5 -6
leaf_value=0.00066376558020128196 -0.00066491447293504482 -2.0761354819472005e-05 0.00028829093049493438 0 -0.00044851055160790432
leaf_weight=428 373 190 270 243 161
leaf_count=428 373 190 270 243 161
internal_value=0 0.000198176 0.000414541 0.000148343 -0.000299851
internal_weight=1665 1292 941 513 351
internal_count=1665 1292 941 513 351
is_linear=0
shrinkage=0.0095


Tree=55
num_leaves=6
num_cat=0
split_feature=3 261 20 79 235
split_gain=2.40076 1.02391 0.387588 0.195611 0.167689
threshold=-0.24897477775812146 0.53369995951652538 -1.0000000180025095e-35 -0.76198336482048024 -1.0000000180025095e-35
decision_type=2 2 2 2 2
left_child=4 2 -2 -4 -1
right_child=1 -3 3 -5 -6
leaf_value=-0.0009573778091063386 0.00060661235160765767 -0.00022628410486757935 0 0.00034181199266554804 -0.00024533237816059633
leaf_weight=176 423 295 326 224 221
leaf_count=176 423 295 326 224 221
internal_value=0 0.000205634 0.000366114 0.000126991 -0.000637769
internal_weight=1665 1268 973 550 397
internal_count=1665 1268 973 550 397
is_linear=0
shrinkage=0.0095


Tree=56
num_leaves=7
num_cat=0
split_feature=244 126 245 205 91 229
split_gain=2.2896 1.56187 0.336047 0.297665 0.0330502 0.0231086
threshold=0.52339294552803051 1.0000000180025095e-35 0.66556972265243541 -1.023253798484802 0.62572532892227184 -0.30686189234256739
decision_type=2 2 2 2 2 2
left_child=1 2 5 -2 -3 -1
right_child=3 4 -4 -5 -6 -7
leaf_value=0.00010565174722375568 -0.0008991627932013952 0.00063530528607401546 -0.00035274047997744195 -0.0001154019998504521 9.0532327386700059e-05 0
leaf_weight=226 219 465 275 178 148 154
leaf_count=226 219 465 275 178 148 154
internal_value=0 0.000200654 -8.53826e-05 -0.000622994 0.000551267 3.5238e-05
internal_weight=1665 1268 655 397 613 380
internal_count=1665 1268 655 397 613 380
is_linear=0
shrinkage=0.0095


Tree=57
num_leaves=6
num_cat=0
split_feature=237 244 0 219 221
split_gain=2.3693 0.942788 0.905283 0.340036 0.0117322
threshold=0.055790720507502563 0.43420335650444036 -0.74096778035163868 -0.1433102339506149 -0.15588963031768796
decision_type=2 2 2 2 2
left_child=1 4 -2 -4 -1
right_child=2 -3 3 -5 -6
leaf_value=0.0006408905334267667 -0.00086380310893058765 -0.00015806407065238121 -0.00029436350102903479 0.00010686324253745637 0.00016129776618921678
leaf_weight=457 234 157 391 233 193
leaf_count=457 234 157 391 233 193
internal_value=0 0.000371938 -0.000343594 -9.93677e-05 0.000543726
internal_weight=1665 807 858 624 650
internal_count=1665 807 858 624 650
is_linear=0
shrinkage=0.0095


Tree=58
num_leaves=7
num_cat=0
split_feature=97 251 117 251 22 211
split_gain=2.59026 1.20843 0.632742 0.181985 0.0414314 0.0097337
threshold=-0.47986899316310877 -0.43431092798709864 -1.0000000180025095e-35 0.75915244221687328 1.0000000180025095e-35 0.23413307219743731
decision_type=2 2 2 2 2 2
left_child=2 4 3 -1 -2 -3
right_child=1 5 -4 -5 -6 -7
leaf_value=0.00072674636405674906 -1.3648238404999239e-05 -0.00076206590109460651 0 5.2965576090039956e-05 0.00012974593337256219 -0.00017095357808207619
leaf_weight=371 143 366 270 150 217 148
leaf_count=371 143 366 270 150 217 148
internal_value=0 -0.000352562 0.00039617 0.000588745 0 -0.000649242
internal_weight=1665 874 791 521 360 514
internal_count=1665 874 791 521 360 514
is_linear=0
shrinkage=0.0095


Tree=59
num_leaves=6
num_cat=0
split_feature=205 122 3 97 221
split_gain=2.49818 0.85863 0.839719 0.224263 0.14865
threshold=0.17326436191797259 0.60322488099336635 -0.24897477775812146 -0.47986899316310877 -0.36779899895191187
decision_type=2 2 2 2 2
left_child=2 -2 -1 4 -4
right_child=1 -3 3 -5 -6
leaf_value=-0.00064356973807964588 0.00074363341629314292 0 0.00026295417682558762 -0.00025483703594410701 -1.8433090375559126e-05
leaf_weight=376 396 223 215 291 164
leaf_count=376 396 223 215 291 164
internal_value=0 0.000480007 -0.000279577 -3.07076e-05 6.76286e-05
internal_weight=1665 619 1046 670 379
internal_count=1665 619 1046 670 379
is_linear=0
shrinkage=0.0095


Tree=60
num_leaves=6
num_cat=0
split_feature=126 251 251 77 21
split_gain=1.89245 0.534967 0.182639 0.182069 0.15706
threshold=-1.0000000180025095e-35 -0.96566754579544056 0.08302605897188188 -0.51881788671016682 0.14923914894461635
decision_type=2 2 2 2 2
left_child=1 -1 -2 -4 -3
right_child=2 4 3 -5 -6
leaf_value=1.2168066622826729e-06 0.00046941348642315291 -0.00057254448958038353 -3.731652769195401e-05 0.00029727108989638877 -8.6940600200115754e-05
leaf_weight=166 367 506 198 194 246
leaf_count=166 367 506 198 194 246
internal_value=-3.54581e-05 -0.000339877 0.000295226 5.73749e-05 -0.000452552
internal_weight=1677 918 759 392 752
internal_count=1677 918 759 392 752
is_linear=0
shrinkage=0.0095


Tree=61
num_leaves=7
num_cat=0
split_feature=21 4 207 77 157 23
split_gain=1.30365 0.469371 0.428276 0.757589 0.126166 0.0180796
threshold=0.14923914894461635 1.0000000180025095e-35 -0.47598290443420405 -0.67453432083129872 -1.0000000180025095e-35 0.17971737682819369
decision_type=2 2 2 2 2 2
left_child=1 4 -2 -4 -1 -3
right_child=2 5 3 -5 -6 -7
leaf_value=-0.00012455918460964175 -6.565886398211098e-05 -0.00010343859785343292 -6.555064303193611e-05 0.00055295759891751245 -0.00072526018980966585 0
leaf_weight=197 199 149 168 464 249 251
leaf_count=197 199 149 168 464 249 251
internal_value=-3.49588e-05 -0.000311028 0.000212067 0.000344242 -0.000526368 0
internal_weight=1677 846 831 632 446 400
internal_count=1677 846 831 632 446 400
is_linear=0
shrinkage=0.0095


Tree=62
num_leaves=6
num_cat=0
split_feature=97 247 1 249 26
split_gain=2.21326 1.02425 0.623141 0.189058 0.0232303
threshold=-0.47986899316310877 -0.07599377259612082 -0.20311255753040311 0.27938640117645269 0.1757735684514046
decision_type=2 2 2 2 2
left_child=2 3 -1 -2 -4
right_child=1 -3 4 -5 -6
leaf_value=0 0 -0.00090248563527919542 0.00013120702745173784 -0.00027929350935795719 0.00058998925445028318
leaf_weight=250 284 259 209 312 363
leaf_count=250 284 259 209 312 363
internal_value=-3.50263e-05 -0.000387503 0.000297165 -0.000112208 0.000473697
internal_weight=1677 855 822 596 572
internal_count=1677 855 822 596 572
is_linear=0
shrinkage=0.0095


Tree=63
num_leaves=5
num_cat=0
split_feature=120 97 0 236
split_gain=1.81416 0.792809 0.635731 0.0904163
threshold=-1.0000000180025095e-35 -0.47986899316310877 0.10756007954478265 0.28479148447513586
decision_type=2 2 2 2
left_child=2 -2 3 -1
right_child=1 -3 -4 -5
leaf_value=-0.00013883224796541318 0.00049355388218464541 -9.5811488510322683e-05 0 -0.00063767028680736097
leaf_weight=226 543 216 294 398
leaf_count=226 543 216 294 398
internal_value=-3.45781e-05 0.000288782 -0.000332941 -0.000504202
internal_weight=1677 759 918 624
internal_count=1677 759 918 624
is_linear=0
shrinkage=0.0095


Tree=64
num_leaves=6
num_cat=0
split_feature=120 97 120 96 79
split_gain=1.66482 1.05314 0.309416 0.216503 0.189971
threshold=-0.6297784000635146 -0.47986899316310877 -1.0000000180025095e-35 0.39658807218074804 1.0000000180025095e-35
decision_type=2 2 2 2 2
left_child=3 2 -2 -1 -3
right_child=1 4 -4 -5 -6
leaf_value=-3.446196105885606e-05 0 -0.0003473236009985662 0.00048889515226885154 -0.00070043255589824667 0
leaf_weight=167 181 255 543 302 229
leaf_count=167 181 255 543 302 229
internal_value=-3.4364e-05 0.000133809 0.000375722 -0.000525625 -0.000169699
internal_weight=1677 1208 724 469 484
internal_count=1677 1208 724 469 484
is_linear=0
shrinkage=0.0095


Tree=65
num_leaves=6
num_cat=0
split_feature=97 247 258 258 26
split_gain=2.10428 0.73797 0.606151 0.269758 0.0660617
threshold=-0.47986899316310877 0.02783298306167126 0.25604943931102758 0.50780436396598827 -0.43515846133232111
decision_type=2 2 2 2 2
left_child=2 3 4 -2 -1
right_child=1 -3 -4 -5 -6
leaf_value=2.2600551300847137e-05 0 -0.0008776458162571782 -7.9792509964133609e-05 -0.00034263145668997314 0.0005150177044407053
leaf_weight=163 301 223 178 331 481
leaf_count=163 301 223 178 331 481
internal_value=-3.41357e-05 -0.000378185 0.000289287 -0.000153242 0.000435195
internal_weight=1677 855 822 632 644
internal_count=1677 855 822 632 644
is_linear=0
shrinkage=0.0095


Tree=66
num_leaves=6
num_cat=0
split_feature=123 0 236 12 1
split_gain=1.84125 1.09015 0.379402 0.363714 0.078532
threshold=0.62977840006351482 -0.59339773654937733 0.28479148447513586 0.14483325183391574 -0.52949252724647511
decision_type=2 2 2 2 2
left_child=1 -1 -3 -2 -4
right_child=3 2 4 -5 -6
leaf_value=-0.00029219299186333217 -0.00070540584160100708 0.00051953688137368131 -8.8278873842409366e-06 0 0.00016531488673279606
leaf_weight=318 355 471 148 140 280
leaf_count=318 355 471 148 140 280
internal_value=-4.15426e-05 0.000138967 0.000323601 -0.000540373 3.94655e-05
internal_weight=1712 1217 899 495 428
internal_count=1712 1217 899 495 428
is_linear=0
shrinkage=0.0095


Tree=67
num_leaves=6
num_cat=0
split_feature=237 256 130 2 18
split_gain=2.00537 0.292674 0.473034 0.195207 0.113762
threshold=0.61760446429252636 -0.44752019643783564 -0.88004921376705159 -0.37650905549526209 1.0000000180025095e-35
decision_type=2 2 2 2 2
left_child=1 -1 -3 -4 -2
right_child=4 2 3 -5 -6
leaf_value=-5.7914889894821482e-05 -0.00074289929789618026 0.00054109194126512525 -0.0001398893333386605 0.00018105538783946078 -0.00016976413818217749
leaf_weight=251 287 321 203 433 217
leaf_count=251 287 321 203 433 217
internal_value=-4.12455e-05 0.00015063 0.000235011 3.38445e-05 -0.000555163
internal_weight=1712 1208 957 636 504
internal_count=1712 1208 957 636 504
is_linear=0
shrinkage=0.0095


Tree=68
num_leaves=6
num_cat=0
split_feature=237 207 61 78 73
split_gain=1.70937 0.795145 0.627765 0.303628 0.0239481
threshold=-0.20170725136995313 -1.1889478564262388 0.69846928119659435 -0.76198336482048024 -0.61242607235908497
decision_type=2 2 2 2 2
left_child=3 -2 4 -1 -3
right_child=1 2 -4 -5 -6
leaf_value=0 -0.00084995480105084511 9.6756779494609464e-05 -0.0004792896498861116 0.00048154185804063246 0
leaf_weight=265 204 254 298 400 291
leaf_count=265 204 254 298 400 291
internal_value=-4.10191e-05 -0.000294313 -0.000123226 0.000314597 2.13223e-05
internal_weight=1712 1047 843 665 545
internal_count=1712 1047 843 665 545
is_linear=0
shrinkage=0.0095


Tree=69
num_leaves=5
num_cat=0
split_feature=3 254 245 225
split_gain=2.58645 0.63933 0.372255 0.0561693
threshold=-0.24897477775812146 0.094204645603895201 -1.0907667279243467 -0.29304486513137812
decision_type=2 2 2 2
left_child=-1 2 -2 -3
right_child=1 3 -4 -5
leaf_value=-0.00068007317181507671 0 0 0.00044267742529187668 -0.00016096834158748662
leaf_weight=438 162 229 616 267
leaf_count=438 162 229 616 267
internal_value=-4.04707e-05 0.000158376 0.00033519 -6.23143e-05
internal_weight=1712 1274 778 496
internal_count=1712 1274 778 496
is_linear=0
shrinkage=0.0095


Tree=70
num_leaves=6
num_cat=0
split_feature=123 207 96 80 232
split_gain=1.55418 0.931746 0.54794 0.162308 0.0155423
threshold=-1.0000000180025095e-35 -1.010324954986572 0.69846928119659435 -0.28524324297904963 -0.10785556584596633
decision_type=2 2 2 2 2
left_child=3 -2 4 -1 -3
right_child=1 2 -4 -5 -6
leaf_value=0 -0.00081484085765065584 0.00011935236408524091 -0.00044286057625140179 0.00036444749617654403 0
leaf_weight=278 255 260 260 490 169
leaf_count=278 255 260 260 490 169
internal_value=-4.00932e-05 -0.000311814 -8.13101e-05 0.000256855 7.3726e-05
internal_weight=1712 944 689 768 429
internal_count=1712 944 689 768 429
is_linear=0
shrinkage=0.0095


Tree=71
num_leaves=5
num_cat=0
split_feature=258 244 130 3
split_gain=2.22412 0.946045 0.250785 0.169295
threshold=0.79917556047439586 0.52339294552803051 -0.88004921376705159 -0.16875760257244107
decision_type=2 2 2 2
left_child=1 2 -1 -3
right_child=-2 3 -4 -5
leaf_value=0.00049274632427200125 -0.00066978145514351678 -0.00054423256529083808 9.9908342527943217e-05 0
leaf_weight=397 399 140 636 140
leaf_count=397 399 140 636 140
internal_value=-3.94657e-05 0.0001317 0.000279533 -0.000309886
internal_weight=1712 1313 1033 280
internal_count=1712 1313 1033 280
is_linear=0
shrinkage=0.0095


Tree=72
num_leaves=6
num_cat=0
split_feature=205 207 249 207 256
split_gain=2.28632 0.805652 0.649885 0.213758 0.0190599
threshold=0.10516984015703203 -0.31224523484706873 -1.0000000180025095e-35 -0.9996381103992461 -0.21158441901206967
decision_type=2 2 2 2 2
left_child=2 -2 4 -4 -1
right_child=1 -3 3 -5 -6
leaf_value=-6.6957077913088608e-05 0 0.00070738881948447614 -0.00085963505156704716 -0.00025671924420138874 5.100522581309752e-05
leaf_weight=265 233 381 182 414 195
leaf_count=265 233 381 182 414 195
internal_value=-1.57213e-06 0.000440267 -0.00028598 -0.000492315 0
internal_weight=1670 614 1056 596 460
internal_count=1670 614 1056 596 460
is_linear=0
shrinkage=0.0095


Tree=73
num_leaves=7
num_cat=0
split_feature=60 205 198 198 170 232
split_gain=2.50962 0.58377 0.363761 0.315903 0.0655514 0.0413199
threshold=-0.71612641215324391 -1.1691706180572508 -0.29486083984374994 -0.14708589017391202 -1.0000000180025095e-35 -0.17670241743326184
decision_type=2 2 2 2 2 2
left_child=2 -2 -1 5 -5 -3
right_child=1 3 -4 4 -6 -7
leaf_value=0 -0.00069846965729535948 -2.7202397785459779e-05 0.00060179996910226055 0.00017329310633822182 0 -0.00045053921372410565
leaf_weight=146 272 216 456 198 173 209
leaf_count=146 272 216 456 198 173 209
internal_value=-1.56636e-06 -0.00029447 0.000469701 -0.00011832 1.89957e-05 -0.000303875
internal_weight=1670 1068 602 796 371 425
internal_count=1670 1068 602 796 371 425
is_linear=0
shrinkage=0.0095


Tree=74
num_leaves=7
num_cat=0
split_feature=237 194 3 256 170 257
split_gain=2.12205 0.803543 0.363585 0.16784 0.218254 0.122466
threshold=-0.66988539695739735 -0.80684992671012867 -0.85728828608989704 -0.78025013208389271 1.0000000180025095e-35 0.2793134674429894
decision_type=2 2 2 2 2 2
left_child=5 -2 -3 -4 -5 -1
right_child=1 2 3 4 -6 -7
leaf_value=0.00012779596561677601 -0.00058194628505574796 -0.00037221900908465173 -0.00011797818150394797 0.00035448986999304602 0 0.00077945965156734406
leaf_weight=172 375 221 170 271 228 233
leaf_count=172 375 221 170 271 228 233
internal_value=-1.67257e-06 -0.000210145 -1.99248e-05 5.54058e-05 0.000171601 0.000575937
internal_weight=1670 1265 890 669 499 405
internal_count=1670 1265 890 669 499 405
is_linear=0
shrinkage=0.0095


Tree=75
num_leaves=4
num_cat=0
split_feature=258 97 251
split_gain=2.46627 0.843227 0.412501
threshold=0.18640150874853137 -0.47986899316310877 -0.85173603892326344
decision_type=2 2 2
left_child=1 -1 -2
right_child=2 -3 -4
leaf_value=0.00052957770212328013 0 -7.5068172665289971e-06 -0.00051743906813167876
leaf_weight=598 158 293 621
leaf_count=598 158 293 621
internal_value=-1.55401e-06 0.000321761 -0.00040756
internal_weight=1670 891 779
internal_count=1670 891 779
is_linear=0
shrinkage=0.0095


Tree=76
num_leaves=5
num_cat=0
split_feature=61 258 97 80
split_gain=2.42239 0.974089 0.418146 0.17042
threshold=0.54752866923809063 0.77489459514617931 -0.71612641215324391 0.25976422429084783
decision_type=2 2 2 2
left_child=1 2 -1 -4
right_child=-2 -3 3 -5
leaf_value=0.00050118288825183675 -0.00062264353772587997 -0.00040387983137197728 -1.7659047730503409e-05 0.00028825298074985981
leaf_weight=573 437 166 301 193
leaf_count=573 437 166 301 193
internal_value=-1.51517e-06 0.000196716 0.000317792 4.57579e-05
internal_weight=1670 1233 1067 494
internal_count=1670 1233 1067 494
is_linear=0
shrinkage=0.0095


Tree=77
num_leaves=6
num_cat=0
split_feature=258 60 77 258 77
split_gain=2.61726 0.956108 0.294894 0.207048 0.12893
threshold=0.60812294483184826 -0.71612641215324391 -0.28524324297904963 -0.56055662035942067 0.25976422429084783
decision_type=2 2 2 2 2
left_child=1 3 -3 -1 -4
right_child=-2 2 4 -5 -6
leaf_value=0.00070105142741347663 -0.0005718458753981256 -0.00031347475579131723 0 0.00011103767306896444 0.00029505974171860588
leaf_weight=334 524 209 182 225 196
leaf_count=334 524 209 182 225 196
internal_value=-1.50584e-06 0.000235432 0 0.000516403 0.000122582
internal_weight=1670 1146 587 559 378
internal_count=1670 1146 587 559 378
is_linear=0
shrinkage=0.0095


Tree=78
num_leaves=5
num_cat=0
split_feature=244 194 95 80
split_gain=1.73781 1.24662 0.147978 0.0956472
threshold=0.43420335650444036 -0.68199020624160755 1.0862978696823122 -0.28524324297904963
decision_type=2 2 2 2
left_child=1 -1 -3 -2
right_child=3 2 -4 -5
leaf_value=-0.00027504338910799522 -0.00074914351668238879 0.00044255842887473381 0 -0.00019508054421918606
leaf_weight=313 198 731 149 271
leaf_count=313 198 731 149 271
internal_value=0 0.000187218 0.000384332 -0.000493126
internal_weight=1662 1193 880 469
internal_count=1662 1193 880 469
is_linear=0
shrinkage=0.0095


Tree=79
num_leaves=6
num_cat=0
split_feature=205 261 244 229 91
split_gain=1.75188 1.02683 0.388623 0.153716 0.0888184
threshold=-0.12343322485685347 0.7225843369960786 0.43420335650444036 0.04854142107069493 -1.0000000180025095e-35
decision_type=2 2 2 2 2
left_child=2 3 4 -2 -1
right_child=1 -3 -4 -5 -6
leaf_value=0 0.00052240367641933781 -0.00019876938408336419 -0.00062238642571554956 9.6250515929314975e-06 -0.00022642762945794786
leaf_weight=143 563 264 343 190 159
leaf_count=143 563 264 343 190 159
internal_value=0 0.000239719 -0.000391632 0.000431334 -3.21327e-05
internal_weight=1662 1017 645 753 302
internal_count=1662 1017 645 753 302
is_linear=0
shrinkage=0.0095


Tree=80
num_leaves=6
num_cat=0
split_feature=244 258 233 218 97
split_gain=1.68155 1.13392 0.160612 0.0368616 0.0173644
threshold=0.43420335650444036 0.17298310250043872 1.0868292450904848 0.10263067763298751 1.0000000180025095e-35
decision_type=2 2 2 2 2
left_child=1 3 4 -1 -3
right_child=-2 2 -4 -5 -6
leaf_value=0.00012925705302937297 -0.00048533034347337747 -6.4730643999439346e-05 -0.00036474390450844178 0.00053902282562533915 7.4273805142817731e-05
leaf_weight=251 469 175 164 458 145
leaf_count=251 469 175 164 458 145
internal_value=0 0.000183899 -0.000126399 0.000435305 0
internal_weight=1662 1193 484 709 320
internal_count=1662 1193 484 709 320
is_linear=0
shrinkage=0.0095


Tree=81
num_leaves=6
num_cat=0
split_feature=123 251 218 200 175
split_gain=1.3409 0.842815 0.259926 0.0523974 0.0294028
threshold=-1.0000000180025095e-35 -1.0000000180025095e-35 1.1048324704170229 -0.40627416968345637 -0.90858830511569966
decision_type=2 2 2 2 2
left_child=2 3 4 -2 -1
right_child=1 -3 -4 -5 -6
leaf_value=0 -8.2439787506410493e-05 -0.00054444665960364641 0.00063106773075231925 0.00011010826392075917 0.00016125039095792813
leaf_weight=169 183 446 197 282 385
leaf_count=169 183 446 197 282 385
internal_value=0 -0.000250047 0.000290878 0 0.000115584
internal_weight=1662 911 751 465 554
internal_count=1662 911 751 465 554
is_linear=0
shrinkage=0.0095


Tree=82
num_leaves=6
num_cat=0
split_feature=205 246 258 205 179
split_gain=1.83392 1.0566 0.209437 0.092957 0.062368
threshold=-0.06020259112119674 0.25587601959705358 -0.12605573982000348 0.27540615946054464 1.0000000180025095e-35
decision_type=2 2 2 2 2
left_child=2 3 -1 -2 -3
right_child=1 4 -4 -5 -6
leaf_value=0 0.00018120362469592935 -0.00017658239904139961 -0.00049448247921513846 0.00070141699859272843 0
leaf_weight=208 243 208 481 323 199
leaf_count=208 243 208 481 323 199
internal_value=0 0.000259871 -0.000379178 0.000530605 -4.85136e-05
internal_weight=1662 973 689 566 407
internal_count=1662 973 689 566 407
is_linear=0
shrinkage=0.0095


Tree=83
num_leaves=6
num_cat=0
split_feature=207 205 205 246 79
split_gain=1.1153 1.25556 0.352879 0.274364 0.158496
threshold=-0.12484385445713995 -0.074794277548789964 -0.19639164954423902 1.085798501968384 -0.76198336482048024
decision_type=2 2 2 2 2
left_child=2 4 -1 -4 -2
right_child=1 -3 3 -5 -6
leaf_value=-0.00055538756729791628 -0.00031715122038813352 0.0005398946382026695 2.1634370250834081e-05 -0.00041355585128840416 0
leaf_weight=274 213 516 366 148 145
leaf_count=274 213 516 366 148 145
internal_value=0 0.000227922 -0.000263777 -5.05504e-05 -0.000143772
internal_weight=1662 874 788 514 358
internal_count=1662 874 788 514 358
is_linear=0
shrinkage=0.0095


Tree=84
num_leaves=6
num_cat=0
split_feature=59 243 251 3 129
split_gain=1.67313 1.37998 0.245575 0.107724 0.0423657
threshold=-0.86266914010047901 0.48602290451526647 -0.63774928450584401 -1.0000000180025095e-35 -0.90858830511569966
decision_type=2 2 2 2 2
left_child=-1 2 -2 -3 -4
right_child=1 3 4 -5 -6
leaf_value=-0.00060932170528283801 0.00062859908482840936 -0.00042053917997504175 0 0 0.00022124359098760644
leaf_weight=351 278 257 183 165 460
leaf_count=351 278 257 183 165 460
internal_value=-1.44227e-05 0.000121071 0.000341682 -0.000292275 0.000170819
internal_weight=1694 1343 921 422 643
internal_count=1694 1343 921 422 643
is_linear=0
shrinkage=0.0095


Tree=85
num_leaves=5
num_cat=0
split_feature=258 0 261 79
split_gain=1.69519 1.27335 0.651448 0.237136
threshold=0.98000457882881176 0.089113824069499983 0.32120503485202795 -0.76198336482048024
decision_type=2 2 2 2
left_child=1 3 -3 -1
right_child=-2 2 -4 -5
leaf_value=-0.00031636856915588191 -0.00069586709945886407 0.00059594289310415673 0 0
leaf_weight=381 282 480 232 319
leaf_count=381 282 480 232 319
internal_value=-1.41685e-05 0.000103228 0.000397267 -0.000155828
internal_weight=1694 1412 712 700
internal_count=1694 1412 712 700
is_linear=0
shrinkage=0.0095


Tree=86
num_leaves=5
num_cat=0
split_feature=3 117 244 242
split_gain=1.44376 0.513795 0.457736 0.104482
threshold=0.098632950335741057 0.62977840006351482 -1.0000000180025095e-35 -0.1966142654418945
decision_type=2 2 2 2
left_child=1 3 -2 -1
right_child=2 -3 -4 -5
leaf_value=4.3216371941342343e-05 0.00054054874256578443 -0.00050244560009131357 0 -0.00015382012737956614
leaf_weight=304 382 413 202 393
leaf_count=304 382 413 202 393
internal_value=-1.39966e-05 -0.000230776 0.000348443 -2.74099e-05
internal_weight=1694 1110 584 697
internal_count=1694 1110 584 697
is_linear=0
shrinkage=0.0095


Tree=87
num_leaves=7
num_cat=0
split_feature=21 218 213 257 15 26
split_gain=1.35579 0.681641 0.411415 0.133799 0.119102 0.0416042
threshold=1.0657218694686892 -0.78204911947250355 -0.59927311539649952 -0.79096177220344532 -0.21276417374610898 1.0000000180025095e-35
decision_type=2 2 2 2 2 2
left_child=1 3 -3 -1 -4 -6
right_child=-2 2 4 -5 5 -7
leaf_value=-0.00071750938037269641 0.00056999845532382926 -0.00029614160214746235 0 -4.8766030915384253e-05 0 0.00026898765641033932
leaf_weight=200 277 339 165 153 265 295
leaf_count=200 277 339 165 153 265 295
internal_value=-1.37261e-05 -0.000149021 -9.73818e-07 -0.000510926 9.86808e-05 0.000177945
internal_weight=1694 1417 1064 353 725 560
internal_count=1694 1417 1064 353 725 560
is_linear=0
shrinkage=0.0095


Tree=88
num_leaves=5
num_cat=0
split_feature=244 2 207 244
split_gain=1.67617 1.30128 0.0110341 0.00247345
threshold=0.16663455218076709 -0.75209739804267872 0.21713504195213321 1.2369098067283633
decision_type=2 2 2 2
left_child=1 -1 -3 -2
right_child=3 2 -4 -5
leaf_value=-0.00030062085297319168 -0.00020712590893687553 0.00019936792481122561 0.00055357932050561457 -0.00058381842067541339
leaf_weight=271 388 375 396 264
leaf_count=271 388 375 396 264
internal_value=-1.36471e-05 0.000204778 0.000419775 -0.000405433
internal_weight=1694 1042 771 652
internal_count=1694 1042 771 652
is_linear=0
shrinkage=0.0095


Tree=89
num_leaves=5
num_cat=0
split_feature=126 60 78 194
split_gain=1.27091 1.05426 0.636187 0.190637
threshold=-0.6297784000635146 -0.71612641215324391 -0.52499568462371815 -0.95337954163551319
decision_type=2 2 2 2
left_child=3 -2 -3 -1
right_child=1 2 -4 -5
leaf_value=-0.00068539206583865522 0.00043974156579371158 -0.00043342085725863599 0.00012297323572046652 -9.8902550832541386e-05
leaf_weight=228 567 305 348 246
leaf_count=228 567 305 348 246
internal_value=-1.35241e-05 0.000131089 -9.44177e-05 -0.000443653
internal_weight=1694 1220 653 474
internal_count=1694 1220 653 474
is_linear=0
shrinkage=0.0095


Tree=90
num_leaves=6
num_cat=0
split_feature=2 20 18 60 60
split_gain=1.47509 0.918752 0.188216 0.157662 0.153575
threshold=-0.56288591027259816 0.71309152990579616 -0.1000093976035714 0.93767547607421886 1.0000000180025095e-35
decision_type=2 2 2 2 2
left_child=2 3 -1 4 -2
right_child=1 -3 -4 -5 -6
leaf_value=-0.0006221497813788129 0.00052625867510660922 -0.00020652420836286857 -7.3233246769319451e-05 0 0
leaf_weight=282 488 305 245 178 174
leaf_count=282 488 305 245 178 174
internal_value=0 0.000182547 -0.000422851 0.000357875 0.000428616
internal_weight=1672 1145 527 840 662
internal_count=1672 1145 527 840 662
is_linear=0
shrinkage=0.0095


Tree=91
num_leaves=7
num_cat=0
split_feature=237 61 60 251 219 78
split_gain=1.79657 0.722355 0.426752 0.351498 0.0456724 0.035903
threshold=-0.13148053362965581 0.54752866923809063 -0.47986899316310877 -0.4018446654081344 -0.55769100785255421 -0.52499568462371815
decision_type=2 2 2 2 2 2
left_child=2 4 -1 -3 -2 -6
right_child=1 3 -4 -5 5 -7
leaf_value=0.00049799807349206534 -0.00013648362545155693 -1.6497797742152347e-05 0 -0.00082616947172515348 0 0.00013361538097406058
leaf_weight=515 218 157 181 244 179 178
leaf_count=515 218 157 181 244 179 178
internal_value=0 -0.000271244 0.000358846 -0.000582509 -2.69496e-06 4.77357e-07
internal_weight=1672 976 696 401 575 357
internal_count=1672 976 696 401 575 357
is_linear=0
shrinkage=0.0095


Tree=92
num_leaves=5
num_cat=0
split_feature=60 169 3 213
split_gain=2.22325 0.479538 0.408967 0.214737
threshold=-0.47986899316310877 -0.94864358007907856 -0.24897477775812146 -0.68715736269950856
decision_type=2 2 2 2
left_child=3 -2 -3 -1
right_child=1 2 -4 -5
leaf_value=0 0 -0.00069254939252389315 -9.0649302619983697e-05 0.00045233970999115664
leaf_weight=177 219 362 320 594
leaf_count=177 219 362 320 594
internal_value=0 -0.000328781 -0.000453613 0.000364456
internal_weight=1672 901 682 771
internal_count=1672 901 682 771
is_linear=0
shrinkage=0.0095


Tree=93
num_leaves=6
num_cat=0
split_feature=237 0 194 1 218
split_gain=1.48336 1.11826 0.730145 0.21116 0.170227
threshold=0.43033321201801306 -0.24291881173849103 -1.0101339817047117 0.15054996311664584 -0.57312104105949391
decision_type=2 2 2 2 2
left_child=1 -1 -2 -3 -4
right_child=2 3 4 -5 -6
leaf_value=-0.00018376759313124656 -0.00083962146066021194 9.8969259785787589e-05 -0.00031844594601105914 0.0006017675212092328 0
leaf_weight=332 211 287 165 418 259
leaf_count=332 211 287 165 418 259
internal_value=0 0.000212149 -0.000369222 0.000438808 -6.35076e-05
internal_weight=1672 1037 635 705 424
internal_count=1672 1037 635 705 424
is_linear=0
shrinkage=0.0095


Tree=94
num_leaves=6
num_cat=0
split_feature=246 205 97 249 97
split_gain=1.62015 1.55321 0.419008 0.225341 0.0838789
threshold=1.0989719033241274 -0.17693606764078137 -0.47986899316310877 0.27938640117645269 -0.47986899316310877
decision_type=2 2 2 2 2
left_child=1 2 -1 -3 -5
right_child=-2 3 -4 4 -6
leaf_value=0 -0.00076949169483022013 0.00052790967005463809 -0.00044641275042313079 0.00021420026789111638 0
leaf_weight=175 216 477 377 267 160
leaf_count=175 216 477 377 267 160
internal_value=0 0.000105515 -0.000261589 0.000361225 0.000106042
internal_weight=1672 1456 552 904 427
internal_count=1672 1456 552 904 427
is_linear=0
shrinkage=0.0095


Tree=95
num_leaves=7
num_cat=0
split_feature=3 232 237 36 77 78
split_gain=1.5989 0.502108 0.337609 0.0930756 0.0170197 0.00191287
threshold=-1.0000000180025095e-35 -0.59251549839973439 -0.34216068685054774 0.2670492976903916 -1.0000000180025095e-35 1.0000000180025095e-35
decision_type=2 2 2 2 2 2
left_child=1 5 -2 -3 -4 -1
right_child=2 3 4 -5 -6 -7
leaf_value=-2.848609427447973e-06 0.0004809609990362532 -0.00056854241466055254 0 -1.9972485206266188e-05 8.3596795168718296e-05 3.2784189724900846e-05
leaf_weight=145 427 395 174 155 220 156
leaf_count=145 427 395 174 155 220 156
internal_value=0 -0.000296575 0.000289584 -0.00046654 8.07015e-06 0
internal_weight=1672 851 821 550 394 301
internal_count=1672 851 821 550 394 301
is_linear=0
shrinkage=0.0095


Tree=96
num_leaves=5
num_cat=0
split_feature=258 60 20 191
split_gain=1.39317 0.666728 0.633179 0.151731
threshold=0.82281750440597545 -0.71612641215324391 0.17895253747701648 -1.0000000180025095e-35
decision_type=2 2 2 2
left_child=1 -1 3 -3
right_child=-2 2 -4 -5
leaf_value=0.00036253305039341552 -0.0005386128600614621 0 -0.00044392522373799348 0.00030729994690200025
leaf_weight=618 353 242 251 224
leaf_count=618 353 242 251 224
internal_value=0 0.000129108 -3.33144e-05 0.000128809
internal_weight=1688 1335 717 466
internal_count=1688 1335 717 466
is_linear=0
shrinkage=0.0095


Tree=97
num_leaves=5
num_cat=0
split_feature=97 79 243 194
split_gain=1.67301 0.462165 0.24424 0.400683
threshold=-0.47986899316310877 0.89693039655685436 0.64161530137062084 -0.38583527505397791
decision_type=2 2 2 2
left_child=2 -2 3 -1
right_child=1 -3 -4 -5
leaf_value=0 -0.00044975675851619066 0 0 0.00051074906912062525
leaf_weight=182 594 273 144 495
leaf_count=182 594 273 144 495
internal_value=0 -0.000301542 0.000295174 0.000371425
internal_weight=1688 867 821 677
internal_count=1688 867 821 677
is_linear=0
shrinkage=0.0095


Tree=98
num_leaves=7
num_cat=0
split_feature=96 236 193 84 225 174
split_gain=1.34501 0.438123 0.236412 0.166007 0.11998 0.04102
threshold=0.81167474389076244 -1.0000000180025095e-35 -0.88004921376705159 1.0000000180025095e-35 -0.55587062239646901 -1.0000000180025095e-35
decision_type=2 2 2 2 2 2
left_child=1 2 -1 -3 -5 -4
right_child=-2 3 5 4 -6 -7
leaf_value=0.00059685697187064765 -0.00049506092654182348 0.000130532231557971 0.00018202727716134875 0 -0.00030944150294359219 0
leaf_weight=227 393 289 198 163 214 204
leaf_count=227 393 289 198 163 214 204
internal_value=0 0.000136547 0.000317478 0 -0.000162101 8.5646e-05
internal_weight=1688 1295 629 666 377 402
internal_count=1688 1295 629 666 377 402
is_linear=0
shrinkage=0.0095


Tree=99
num_leaves=8
num_cat=0
split_feature=3 244 8 6 251 97 19
split_gain=1.60992 0.504185 0.251248 0.0918647 0.0776189 0.027819 0.00455143
threshold=-0.24897477775812146 -1.0000000180025095e-35 -0.82208117842674244 -0.13570286892354486 -0.47937068343162531 -0.71612641215324391 -0.11863775923848151
decision_type=2 2 2 2 2 2 2
left_child=4 2 -2 -4 -1 -3 -7
right_child=1 5 3 -5 -6 6 -8
leaf_value=-6.3064162426977783e-05 0 0 6.9634579676304656e-05 0.00054964961693200021 -0.00064713161547604221 0 -0.00011041029863818729
leaf_weight=155 143 150 215 355 280 150 240
leaf_count=155 143 150 215 355 280 150 240
internal_value=0 0.000161927 0.000330792 0.000419816 -0.000506174 -9.29314e-06 -8.06203e-05
internal_weight=1688 1253 713 570 435 540 390
internal_count=1688 1253 713 570 435 540 390
is_linear=0
shrinkage=0.0095


Tree=100
num_leaves=7
num_cat=0
split_feature=193 207 77 120 156 79
split_gain=1.00543 0.560013 0.746385 0.339864 0.0754262 0.0669536
threshold=-0.88004921376705159 -0.75613078474998463 -0.28524324297904963 -1.0000000180025095e-35 -0.93873891234397877 -1.0000000180025095e-35
decision_type=2 2 2 2 2 2
left_child=3 -2 -3 -1 -4 -6
right_child=1 2 4 -5 5 -7
leaf_value=0 -0.00048531355965479578 -0.00038012122499447219 0.00034847927052112179 0.00057616316976820891 -3.4350639734338835e-05 0.00015691052366651807
leaf_weight=155 327 336 203 280 151 236
leaf_count=155 327 336 203 280 151 236
internal_value=0 -0.000147404 0 0.000380359 0.000175626 9.66171e-06
internal_weight=1688 1253 926 435 590 387
internal_count=1688 1253 926 435 590 387
is_linear=0
shrinkage=0.0095


Tree=101
num_leaves=7
num_cat=0
split_feature=120 15 80 242 193 213
split_gain=0.984518 0.584382 0.477806 0.171805 0.135103 0.0555672
threshold=-1.0000000180025095e-35 -0.21276417374610898 -0.94703805446624745 -0.31978555023670191 -0.88004921376705159 -0.11552079021930693
decision_type=2 2 2 2 2 2
left_child=1 -1 -2 5 -4 -3
right_child=2 3 4 -5 -6 -7
